{
    "b":-0.01580916957434654,
    "w":[
        [
            0.005952577124655918
        ],
        [
            -0.014317611467679053
        ],
        [
            -0.006702194254422769
        ],
        [
            -0.0028157343740616526
        ],
        [
            -0.02526912838917275
        ],
        [
            -0.01400172492183972
        ],
        [
            0.0020034580287652576
        ],
        [
            -0.01999119319485447
        ],
        [
            -0.007406901652730665
        ],
        [
            0.008303542256919242
        ],
        [
            -0.013576840682727782
        ],
        [
            0.00022497483946661495
        ],
        [
            0.01422108620656187
        ],
        [
            -0.006643610957352405
        ],
        [
            0.004772462342013712
        ],
        [
            0.01118260626765476
        ],
        [
            -0.009591440545216299
        ],
        [
            -0.0025142357459189075
        ],
        [
            0.01053488798764588
        ],
        [
            -0.008554595029592051
        ],
        [
            -0.002262176791942766
        ],
        [
            0.012678147806343581
        ],
        [
            -0.005693583291575357
        ],
        [
            0.0006992934583480933
        ],
        [
            0.012016198548534258
        ],
        [
            -0.006969644669015172
        ],
        [
            -0.0005693520065673599
        ],
        [
            0.006980130461388399
        ],
        [
            -0.012773086590866421
        ],
        [
            -0.0026736797730555727
        ],
        [
            0.008379486485615893
        ],
        [
            -0.01225872491310277
        ],
        [
            -0.003450191397582402
        ],
        [
            0.0076977472424699855
        ],
        [
            -0.012194554603644634
        ],
        [
            -0.007591018047789928
        ],
        [
            0.007896891711617822
        ],
        [
            -0.014872641347270236
        ],
        [
            -0.011225492227820348
        ],
        [
            0.002948905554684686
        ],
        [
            -0.017980004140621432
        ],
        [
            -0.013942724309287925
        ],
        [
            0.0009368028607981084
        ],
        [
            -0.014993421464147769
        ],
        [
            -0.008263528104938682
        ],
        [
            -0.00045488668946012164
        ],
        [
            -0.013134786203165561
        ],
        [
            -0.004041030598286344
        ],
        [
            -0.000696448884232699
        ],
        [
            -0.016471461835717304
        ],
        [
            -0.0027869777239602623
        ],
        [
            -0.0034150938343565497
        ],
        [
            -0.019204900120197755
        ],
        [
            -0.008211446224580558
        ],
        [
            -0.005694314925450741
        ],
        [
            -0.016283408212439517
        ],
        [
            -0.011603964938031909
        ],
        [
            -0.0038758351998503635
        ],
        [
            -0.012299446218955335
        ],
        [
            -0.009465887131363912
        ],
        [
            0.0006466806839852013
        ],
        [
            -0.010469693026049578
        ],
        [
            -0.006182620727878195
        ],
        [
            0.007556726174304564
        ],
        [
            -0.004514690174434427
        ],
        [
            0.0012350481197373963
        ],
        [
            0.009134571122624328
        ],
        [
            -0.0031064356932022173
        ],
        [
            0.0011689704871530638
        ],
        [
            0.008360667103403179
        ],
        [
            -0.006043041108394608
        ],
        [
            -0.0008853575323302644
        ],
        [
            0.01196838401859921
        ],
        [
            -0.006824730076230546
        ],
        [
            0.003559743401249861
        ],
        [
            -0.0022671646861619744
        ],
        [
            -0.01823833189713647
        ],
        [
            -0.004419585035855119
        ],
        [
            -0.006160597168806751
        ],
        [
            -0.020245306255155724
        ],
        [
            -0.005362708067329476
        ],
        [
            -0.006333282205990639
        ],
        [
            -0.02010472286478263
        ],
        [
            -0.007245052441236087
        ],
        [
            -0.0019865665770900753
        ],
        [
            -0.017546037118801223
        ],
        [
            -0.0033026509435843143
        ],
        [
            0.0001977207501505384
        ],
        [
            -0.012975646932702622
        ],
        [
            -0.0013588558164559046
        ],
        [
            -0.004925092277249267
        ],
        [
            -0.020400463266261003
        ],
        [
            -0.010704472371700717
        ],
        [
            -0.010914487960257183
        ],
        [
            -0.02076245429336997
        ],
        [
            -0.011829661650785162
        ],
        [
            -0.010863747879221558
        ],
        [
            -0.016146532676329976
        ],
        [
            -0.008144824900076331
        ],
        [
            -0.009442489082988552
        ],
        [
            -0.014519402793694937
        ],
        [
            -0.004361351472652936
        ],
        [
            -0.0067502388886381435
        ],
        [
            -0.013181798851159008
        ],
        [
            -0.003818619405401016
        ],
        [
            -0.007462353206267116
        ],
        [
            -0.014960582992390696
        ],
        [
            -0.005844556712437228
        ],
        [
            -0.016591197528964152
        ],
        [
            -0.02253580657289529
        ],
        [
            -0.013529340266594725
        ],
        [
            -0.021034490997265214
        ],
        [
            -0.025734178929543283
        ],
        [
            -0.015697788309001193
        ],
        [
            -0.011194573102745043
        ],
        [
            -0.017423168694519785
        ],
        [
            -0.006772627551076311
        ],
        [
            -0.004063340415110743
        ],
        [
            -0.012040323463693678
        ],
        [
            -0.0009528366887090625
        ],
        [
            -0.004807035601163623
        ],
        [
            -0.0104658214726316
        ],
        [
            0.0031981406800763337
        ],
        [
            0.0059231921613600025
        ],
        [
            -0.002252391970298318
        ],
        [
            0.010495324630116695
        ],
        [
            0.011009494686558714
        ],
        [
            0.0012888662567242647
        ],
        [
            0.015069430356870701
        ],
        [
            0.013829656455016633
        ],
        [
            0.0027656598361790277
        ],
        [
            0.018843209659737483
        ],
        [
            0.013034844602900131
        ],
        [
            0.002187135216556694
        ],
        [
            0.014263259545947985
        ],
        [
            0.014478559347116535
        ],
        [
            0.002129166060686704
        ],
        [
            0.008750156978817338
        ],
        [
            0.01583096629939286
        ],
        [
            0.003926080479999839
        ],
        [
            0.007611750557177837
        ],
        [
            0.015904111196012555
        ],
        [
            0.002918338402695936
        ],
        [
            0.01013734141926899
        ],
        [
            0.012444021153938492
        ],
        [
            -0.003078383059774648
        ],
        [
            0.00787057083379179
        ],
        [
            0.008524235886471174
        ],
        [
            -0.005809941379461165
        ],
        [
            0.0036410676452065063
        ],
        [
            0.007988517846096818
        ],
        [
            -0.006515456240511007
        ],
        [
            0.0005505927043879588
        ],
        [
            0.001927458331866093
        ],
        [
            -0.013798361970520747
        ],
        [
            -0.008924283166226829
        ],
        [
            0.006101085280696334
        ],
        [
            -0.009002789287947571
        ],
        [
            -0.005950353816015827
        ],
        [
            0.010689188226511841
        ],
        [
            -0.006455808990908847
        ],
        [
            -0.0030477001338521867
        ],
        [
            0.018907595422085137
        ],
        [
            0.00383999642863974
        ],
        [
            0.0065751917158490105
        ],
        [
            0.020023844355980692
        ],
        [
            0.005473987256999496
        ],
        [
            0.007982035100424171
        ],
        [
            0.011382887880428084
        ],
        [
            -0.003279521067617486
        ],
        [
            -0.0016523733574470996
        ],
        [
            0.010641785858220305
        ],
        [
            -0.00535783956796754
        ],
        [
            -0.0007851792330807097
        ],
        [
            0.013666292538711298
        ],
        [
            -0.0048073443683069985
        ],
        [
            0.0019428134989935147
        ],
        [
            0.017277967163843534
        ],
        [
            -0.0005009277529543516
        ],
        [
            0.008637478383718993
        ],
        [
            0.02197674196248137
        ],
        [
            0.004756881154102727
        ],
        [
            0.016837929673766537
        ],
        [
            0.023250289574340503
        ],
        [
            0.0044251423988988115
        ],
        [
            0.020940466298432308
        ],
        [
            0.021830824906252287
        ],
        [
            0.004541411767475766
        ],
        [
            0.017958576422760466
        ],
        [
            0.01364734628548609
        ],
        [
            -0.0011014113341000918
        ],
        [
            0.010207227139994208
        ],
        [
            0.002893367687027264
        ],
        [
            -0.01622824035614518
        ],
        [
            -0.005909380975397259
        ],
        [
            0.001896428006947531
        ],
        [
            -0.018871537227523504
        ],
        [
            -0.0065153622093877565
        ],
        [
            0.008551165071030582
        ],
        [
            -0.011245343153066842
        ],
        [
            0.0021368245026977596
        ],
        [
            0.01184957053131854
        ],
        [
            -0.00691030534362224
        ],
        [
            0.006984468871241523
        ],
        [
            0.015124143825055232
        ],
        [
            -0.002473093866430429
        ],
        [
            0.007499293821535776
        ],
        [
            0.011254409579054589
        ],
        [
            -0.0060191834841011255
        ],
        [
            0.0022573249551320644
        ],
        [
            0.012593112760187323
        ],
        [
            -0.004666014942416618
        ],
        [
            0.002778040828266172
        ],
        [
            0.020199742874293936
        ],
        [
            0.003393629959335795
        ],
        [
            0.009259319161545335
        ],
        [
            0.01633307924751799
        ],
        [
            -0.0012980537756856281
        ],
        [
            0.004446009946069767
        ],
        [
            0.007249396470717549
        ],
        [
            -0.013221030624772657
        ],
        [
            -0.003357543944108876
        ],
        [
            0.0047335254231211646
        ],
        [
            -0.014740022647131852
        ],
        [
            -0.003033429919961684
        ],
        [
            0.007576960322224516
        ],
        [
            -0.01398610788817568
        ],
        [
            -0.003878980951652547
        ],
        [
            0.00874622675700748
        ],
        [
            -0.012872672200047864
        ],
        [
            -0.007729428440601349
        ],
        [
            0.012157297371482573
        ],
        [
            -0.008939529888732077
        ],
        [
            -0.0001685582887133005
        ],
        [
            0.00565405561552078
        ],
        [
            -0.01041197914641686
        ],
        [
            -0.000606398571158685
        ],
        [
            0.0021800106713015
        ],
        [
            -0.012114420148372895
        ],
        [
            -0.0035966027117115065
        ],
        [
            0.0017480727804593615
        ],
        [
            -0.01231688648244995
        ],
        [
            -0.0008777721983016504
        ],
        [
            -0.0005511918067839735
        ],
        [
            -0.01550975321034501
        ],
        [
            -0.007238974730820903
        ],
        [
            -0.0032847041997781205
        ],
        [
            -0.0150607626035767
        ],
        [
            -0.00960981168638921
        ],
        [
            0.00046040004941264696
        ],
        [
            -0.007723980178964837
        ],
        [
            -0.0036646664713801736
        ],
        [
            0.0028614856765677705
        ],
        [
            -0.00959073442708269
        ],
        [
            -0.0026752022377332448
        ],
        [
            0.005568668116151436
        ],
        [
            -0.008192029519462424
        ],
        [
            3.5598272820742893e-07
        ],
        [
            0.0114994863343884
        ],
        [
            -0.0013044150671797715
        ],
        [
            0.00402676177636216
        ],
        [
            0.014267222292513322
        ],
        [
            0.0001785010175727911
        ],
        [
            0.006590544893278918
        ],
        [
            0.01268865677682376
        ],
        [
            -0.0011005854029393371
        ],
        [
            0.010644146788692571
        ],
        [
            0.00588086812132039
        ],
        [
            -0.008101119902650224
        ],
        [
            0.008638223199727594
        ],
        [
            0.001863068405240801
        ],
        [
            -0.011804940314273149
        ],
        [
            0.005629567424555655
        ],
        [
            0.000988898184188081
        ],
        [
            -0.013218077474203371
        ],
        [
            0.0006584241865762189
        ],
        [
            0.003056222507351935
        ],
        [
            -0.012350502259083834
        ],
        [
            0.00025260778782266915
        ],
        [
            0.0018145536695212178
        ],
        [
            -0.010110232178124397
        ],
        [
            -0.0016309406309272338
        ],
        [
            0.002520379887616829
        ],
        [
            -0.010265868089163823
        ],
        [
            -0.005112917971091324
        ],
        [
            -0.0014304944021580723
        ],
        [
            -0.008872420838234205
        ],
        [
            -0.004318555294903626
        ],
        [
            -0.00011873898837670076
        ],
        [
            -0.005074350900393671
        ],
        [
            -0.0016338213590387088
        ],
        [
            -0.001501352319310113
        ],
        [
            -0.009045672802784902
        ],
        [
            -0.002734909887684584
        ],
        [
            -0.0016831364901036421
        ],
        [
            -0.009881744357131975
        ],
        [
            -0.0018374303987391382
        ],
        [
            -0.0016253311274144998
        ],
        [
            -0.007486454727074492
        ],
        [
            0.00016831148871850561
        ],
        [
            -0.008611410398186439
        ],
        [
            -0.012956999214586606
        ],
        [
            -0.004420271731736933
        ],
        [
            -0.01195503748954306
        ],
        [
            -0.01777826585168269
        ],
        [
            -0.009333814443529345
        ],
        [
            -0.004877252009111433
        ],
        [
            -0.009167758163143537
        ],
        [
            -0.0013715973464088916
        ],
        [
            -0.004027951243356865
        ],
        [
            -0.008870912510183043
        ],
        [
            0.00018971672174332516
        ],
        [
            -0.004332545880782178
        ],
        [
            -0.006908971645093312
        ],
        [
            0.004184833949037292
        ],
        [
            0.0033129622581347454
        ],
        [
            -0.0014664924498855253
        ],
        [
            0.009199022803881598
        ],
        [
            0.006703066781741736
        ],
        [
            -0.0019796880782037966
        ],
        [
            0.010667745085059506
        ],
        [
            0.009945060245570894
        ],
        [
            -0.0012567303923626037
        ],
        [
            0.014322234820210554
        ],
        [
            0.016072947286837756
        ],
        [
            0.0023590648143296325
        ],
        [
            0.01440149736794924
        ],
        [
            0.015968182634933888
        ],
        [
            0.0024846057783559456
        ],
        [
            0.008787898093785811
        ],
        [
            0.013892242650004341
        ],
        [
            0.0045752041245000884
        ],
        [
            0.007444954192409071
        ],
        [
            0.01202799084966997
        ],
        [
            -0.0003961146322812332
        ],
        [
            0.00483642889062079
        ],
        [
            0.007058547517061181
        ],
        [
            -0.006817207855175541
        ],
        [
            0.0017976381880473171
        ],
        [
            0.005383174039278645
        ],
        [
            -0.006885076317055384
        ],
        [
            0.001138360437490614
        ],
        [
            0.00536357780614694
        ],
        [
            -0.007496144111736535
        ],
        [
            -0.0013298051341485793
        ],
        [
            -0.001302319247751041
        ],
        [
            -0.016289295051549576
        ],
        [
            -0.012295541228822107
        ],
        [
            0.006194586662149645
        ],
        [
            -0.008175768243226756
        ],
        [
            -0.007503109817625156
        ],
        [
            0.015408636896825959
        ],
        [
            0.002132210952184629
        ],
        [
            0.0034068940256963562
        ],
        [
            0.017081791299264775
        ],
        [
            0.003204602586957007
        ],
        [
            0.006797835899829441
        ],
        [
            0.01805520909277325
        ],
        [
            0.0019644959245665
        ],
        [
            0.004216161737913563
        ],
        [
            0.012165411938009756
        ],
        [
            -0.004678583072647613
        ],
        [
            -0.003687462001998808
        ],
        [
            0.011738648626280962
        ],
        [
            -0.005373118193520225
        ],
        [
            -0.0029273659507458184
        ],
        [
            0.019805644754604706
        ],
        [
            -0.0018168198009331832
        ],
        [
            0.0041358263439658285
        ],
        [
            0.01801051029342084
        ],
        [
            -0.003275722539961708
        ],
        [
            0.005894680908650734
        ],
        [
            0.017063370402820105
        ],
        [
            -0.0025062834176404337
        ],
        [
            0.009961104393476803
        ],
        [
            0.02044432955465657
        ],
        [
            0.0011043149479671593
        ],
        [
            0.017438497564946785
        ],
        [
            0.02024514446274606
        ],
        [
            0.0028361592140680723
        ],
        [
            0.018392787216405453
        ],
        [
            0.0120496137969415
        ],
        [
            -0.0025528142737786586
        ],
        [
            0.011970018652769716
        ],
        [
            0.0037821180494695523
        ],
        [
            -0.016226690771550263
        ],
        [
            -0.007967726523164168
        ],
        [
            0.004612535208202759
        ],
        [
            -0.012339059150192984
        ],
        [
            -0.0057424134626207005
        ],
        [
            0.011342877376347872
        ],
        [
            -0.006756967884013536
        ],
        [
            0.0018850272542169282
        ],
        [
            0.016729977326932318
        ],
        [
            -0.00018926876644769514
        ],
        [
            0.012117109611483925
        ],
        [
            0.020012621250884235
        ],
        [
            0.0031559599319411326
        ],
        [
            0.013690409571657309
        ],
        [
            0.01734540229596285
        ],
        [
            0.0011332867243068299
        ],
        [
            0.012830342252663671
        ],
        [
            0.01616073868934408
        ],
        [
            0.0018019077081595208
        ],
        [
            0.01032704168682916
        ],
        [
            0.019616485345067568
        ],
        [
            0.006074068435628407
        ],
        [
            0.012156453701562289
        ],
        [
            0.017455359239506203
        ],
        [
            0.003241700692289823
        ],
        [
            0.009084715622915495
        ],
        [
            0.014189559287238997
        ],
        [
            -0.0038740885738997007
        ],
        [
            0.002805538145608255
        ],
        [
            0.009057894465234969
        ],
        [
            -0.009770750927840445
        ],
        [
            -0.0030296544445048102
        ],
        [
            0.005921221993992776
        ],
        [
            -0.013563168954670987
        ],
        [
            -0.004484641513600665
        ],
        [
            0.0046657694231491955
        ],
        [
            -0.013779850046597741
        ],
        [
            -0.006283137104560979
        ],
        [
            0.011633294170054416
        ],
        [
            -0.008082802101215434
        ],
        [
            0.0021421200460001546
        ],
        [
            0.007879316580996455
        ],
        [
            -0.007159446691148596
        ],
        [
            9.279216037895671e-05
        ],
        [
            0.003245320953801648
        ],
        [
            -0.01030081167980631
        ],
        [
            -0.007047338519965435
        ],
        [
            0.0037827558426879434
        ],
        [
            -0.010098306756186157
        ],
        [
            -0.0036304654520116853
        ],
        [
            0.004452544140167677
        ],
        [
            -0.008963965706016043
        ],
        [
            -0.004073289643185327
        ],
        [
            0.008970247186429666
        ],
        [
            -0.00441044630539267
        ],
        [
            -0.002030324303829944
        ],
        [
            0.007247968933957726
        ],
        [
            -0.001347579985759406
        ],
        [
            0.00328471020516241
        ],
        [
            0.004922549374260178
        ],
        [
            -0.009037445540566883
        ],
        [
            -0.001589686582964228
        ],
        [
            0.007507098721794172
        ],
        [
            -0.006848606341266735
        ],
        [
            -0.0009378397250608938
        ],
        [
            0.010025530322010383
        ],
        [
            -0.0004969089569937983
        ],
        [
            0.004359931675696948
        ],
        [
            0.015037798636092588
        ],
        [
            0.005201269249139268
        ],
        [
            0.010351524976266563
        ],
        [
            0.017103146984150764
        ],
        [
            0.007118710159777312
        ],
        [
            0.017830532386428486
        ],
        [
            0.009257323366327808
        ],
        [
            -0.0023423148417583916
        ],
        [
            0.014217689663482492
        ],
        [
            0.006125058760318734
        ],
        [
            -0.006895898464565722
        ],
        [
            0.00994683748819267
        ],
        [
            0.002235253008348571
        ],
        [
            -0.009620997862469012
        ],
        [
            0.002847445161092189
        ],
        [
            0.005542002138772495
        ],
        [
            -0.00912436516887446
        ],
        [
            0.0028971393054481463
        ],
        [
            0.006487603008800032
        ],
        [
            -0.0035262936153015573
        ],
        [
            0.003270904187050622
        ],
        [
            0.008486255153299265
        ],
        [
            -0.0025761246899456353
        ],
        [
            0.002578217447967511
        ],
        [
            0.006591833631186657
        ],
        [
            -0.0009378664842826272
        ],
        [
            0.0012295817041343862
        ],
        [
            0.005952092166268292
        ],
        [
            0.0007415984221921128
        ],
        [
            0.00018547953314561165
        ],
        [
            -0.0011939554567958204
        ],
        [
            -0.008061905736201195
        ],
        [
            -0.006421373366003722
        ],
        [
            -0.004366318006724276
        ],
        [
            -0.011368589842814334
        ],
        [
            -0.007786073062437569
        ],
        [
            -0.0004874835962468676
        ],
        [
            -0.006395540533896383
        ],
        [
            0.0005986835695835747
        ],
        [
            -0.0034264466402028153
        ],
        [
            -0.008053033709712314
        ],
        [
            -0.0003473813390704608
        ],
        [
            -0.0017656755538615174
        ],
        [
            -0.006903559323474394
        ],
        [
            0.0010068301865060986
        ],
        [
            0.001050779218617349
        ],
        [
            -0.002443188472814158
        ],
        [
            0.005301859806195337
        ],
        [
            -0.004142140242288393
        ],
        [
            -0.006651118312304836
        ],
        [
            0.0023909177313159126
        ],
        [
            0.0005897416804543396
        ],
        [
            -0.00267473063059896
        ],
        [
            0.007716990210115768
        ],
        [
            0.006160535495773625
        ],
        [
            0.002735025083096028
        ],
        [
            0.010035787295394503
        ],
        [
            0.0018432196380984104
        ],
        [
            -0.002726558560882497
        ],
        [
            0.0061822686191904935
        ],
        [
            0.008209344310783889
        ],
        [
            -0.0024638843285896077
        ],
        [
            0.009351919257856072
        ],
        [
            0.016262713008441797
        ],
        [
            0.001275545936319123
        ],
        [
            0.011476130283846088
        ],
        [
            0.020773077682552217
        ],
        [
            0.005273302840776376
        ],
        [
            0.010203013190818112
        ],
        [
            0.02019963036710617
        ],
        [
            0.007976069381539531
        ],
        [
            0.008642698125814368
        ],
        [
            0.013157138708976958
        ],
        [
            -0.0006010243054315533
        ],
        [
            0.0016960447445552949
        ],
        [
            0.0051900755688279
        ],
        [
            -0.008940400234541629
        ],
        [
            -0.0016197746134536482
        ],
        [
            0.005093332755068269
        ],
        [
            -0.008012630165629033
        ],
        [
            -0.001942113410405572
        ],
        [
            0.005102040806500136
        ],
        [
            -0.007843623198828547
        ],
        [
            -0.0033058798998296473
        ],
        [
            0.003922640630583523
        ],
        [
            -0.011143818976403649
        ],
        [
            -0.009581331048656891
        ],
        [
            0.006995743146356408
        ],
        [
            -0.00648688305953557
        ],
        [
            -0.008214156129009529
        ],
        [
            0.016569774776760932
        ],
        [
            0.005515446707229728
        ],
        [
            0.002378413933711572
        ],
        [
            0.01613898560188439
        ],
        [
            0.0018403057619987024
        ],
        [
            0.0027093169618160285
        ],
        [
            0.012621730250281038
        ],
        [
            -0.005198227401109552
        ],
        [
            -0.0022245837314784013
        ],
        [
            0.011709539192264083
        ],
        [
            -0.005865615923162209
        ],
        [
            -0.004315056476576888
        ],
        [
            0.012768476814145821
        ],
        [
            -0.005306994729588182
        ],
        [
            -0.00404233693299935
        ],
        [
            0.016277338614487276
        ],
        [
            -0.003742963135705071
        ],
        [
            0.0012021661667747576
        ],
        [
            0.01636429164626648
        ],
        [
            -0.0018050713943941106
        ],
        [
            0.0077562630080606
        ],
        [
            0.01675274482108998
        ],
        [
            -0.00250726383404585
        ],
        [
            0.013774170945340898
        ],
        [
            0.01665008316567775
        ],
        [
            -0.0013846576111045143
        ],
        [
            0.016043321303140193
        ],
        [
            0.01715263225966348
        ],
        [
            0.0010072248533987602
        ],
        [
            0.014356185290983267
        ],
        [
            0.014822411344975328
        ],
        [
            0.00043841398716923846
        ],
        [
            0.01358421975912898
        ],
        [
            0.013328614990954779
        ],
        [
            -0.009149383570024504
        ],
        [
            -0.00028217179895318633
        ],
        [
            0.0016183205775248395
        ],
        [
            -0.016173220095730172
        ],
        [
            -0.010015878546533108
        ],
        [
            0.004584127611492358
        ],
        [
            -0.014907061707804347
        ],
        [
            -0.009229517189961685
        ],
        [
            0.011308835046292421
        ],
        [
            -0.005914756978341343
        ],
        [
            0.003829191214386313
        ],
        [
            0.014011273860674158
        ],
        [
            -0.003678872088904177
        ],
        [
            0.006059072922050907
        ],
        [
            0.017198952172877445
        ],
        [
            -0.000988791730885389
        ],
        [
            0.008659479064827166
        ],
        [
            0.017864313584837446
        ],
        [
            0.003456114824613552
        ],
        [
            0.011118157867022447
        ],
        [
            0.020118983678381226
        ],
        [
            0.007607449894270325
        ],
        [
            0.011845635759220463
        ],
        [
            0.021315274004708375
        ],
        [
            0.0073380519257323674
        ],
        [
            0.011147362540483334
        ],
        [
            0.0149129191342481
        ],
        [
            -0.002272130175069507
        ],
        [
            0.004727282536189192
        ],
        [
            0.009294985348394723
        ],
        [
            -0.010758037440371546
        ],
        [
            -0.002638362280270396
        ],
        [
            0.001781968458333713
        ],
        [
            -0.018341474844931517
        ],
        [
            -0.010802739247163198
        ],
        [
            0.0010072934800967762
        ],
        [
            -0.015806092439072945
        ],
        [
            -0.007723169517515073
        ],
        [
            0.003656414307713765
        ],
        [
            -0.015622739996576587
        ],
        [
            -0.004241662198466215
        ],
        [
            0.00731451829965542
        ],
        [
            -0.011478880902802403
        ],
        [
            -0.001359729507417666
        ],
        [
            0.006755058519011716
        ],
        [
            -0.009010628084570012
        ],
        [
            -0.005839228931842201
        ],
        [
            0.005386908664034759
        ],
        [
            -0.009548808776029313
        ],
        [
            -0.007155795627770699
        ],
        [
            0.007994279211492865
        ],
        [
            -0.005477326391272986
        ],
        [
            -0.0032906103133989034
        ],
        [
            0.016780550123212553
        ],
        [
            5.623716699324167e-05
        ],
        [
            0.0023050668493272727
        ],
        [
            0.009523600163095478
        ],
        [
            -0.002688129626134681
        ],
        [
            0.0021792865441108192
        ],
        [
            0.0020437234807775266
        ],
        [
            -0.01209190474350778
        ],
        [
            -0.004737507995268239
        ],
        [
            0.007180908999741199
        ],
        [
            -0.006977723167510112
        ],
        [
            -0.00023636292950385287
        ],
        [
            0.009444524584764106
        ],
        [
            -0.0014743556563123282
        ],
        [
            0.005283426507900782
        ],
        [
            0.014372546586059914
        ],
        [
            0.006362059342840104
        ],
        [
            0.012366768325629116
        ],
        [
            0.02227459900140663
        ],
        [
            0.015062087354796276
        ],
        [
            0.024941499294496024
        ],
        [
            0.01123991880030922
        ],
        [
            0.0025168219126300794
        ],
        [
            0.015629744089709696
        ],
        [
            0.008132048645515628
        ],
        [
            -0.00014506126811520716
        ],
        [
            0.010822912165136842
        ],
        [
            0.002751261471437986
        ],
        [
            -0.003980308277328618
        ],
        [
            0.004535401931651021
        ],
        [
            0.0024883129096175574
        ],
        [
            -0.008071461600699738
        ],
        [
            0.002061317317875203
        ],
        [
            0.007217878635603799
        ],
        [
            -0.003215758693095145
        ],
        [
            0.005055713703162934
        ],
        [
            0.007083437302436291
        ],
        [
            -0.003912488400492529
        ],
        [
            0.001682965669293145
        ],
        [
            0.009477255340941869
        ],
        [
            -0.0012842728633878514
        ],
        [
            0.0005322538569663873
        ],
        [
            0.004764033026917166
        ],
        [
            -0.002396797303577701
        ],
        [
            -0.00525856068116131
        ],
        [
            -0.003887201332782326
        ],
        [
            -0.011450161227082289
        ],
        [
            -0.00914863125117713
        ],
        [
            -0.009679586843283404
        ],
        [
            -0.017312911628966962
        ],
        [
            -0.009933227508489703
        ],
        [
            -0.002965246107727999
        ],
        [
            -0.00946378667561912
        ],
        [
            -0.0003566970934883542
        ],
        [
            -0.005082523489383404
        ],
        [
            -0.007001555308900707
        ],
        [
            0.00027483609868270706
        ],
        [
            -0.005990370338428938
        ],
        [
            -0.008188170960573072
        ],
        [
            0.0006216160758766905
        ],
        [
            -0.00370764345334811
        ],
        [
            -0.005382374218568325
        ],
        [
            0.002954038962698209
        ],
        [
            -0.007069396688669313
        ],
        [
            -0.010368197310989022
        ],
        [
            -0.00032828282042880264
        ],
        [
            0.0014407548002728892
        ],
        [
            -0.0044505915280959015
        ],
        [
            0.005300265612976111
        ],
        [
            0.005093456354549959
        ],
        [
            0.0007057463920553413
        ],
        [
            0.00651349523008759
        ],
        [
            0.002851637061814639
        ],
        [
            -0.00437201818035188
        ],
        [
            0.0030642151625455746
        ],
        [
            0.0025491867423526704
        ],
        [
            -0.010640441786965986
        ],
        [
            -0.00034260534026065906
        ],
        [
            0.007464004131990925
        ],
        [
            -0.008126811929779315
        ],
        [
            0.00224069222059301
        ],
        [
            0.010740026126990303
        ],
        [
            -0.0028561938196970103
        ],
        [
            0.004850762509673742
        ],
        [
            0.012065036439578125
        ],
        [
            -0.002100341134227097
        ],
        [
            0.0037124425965797923
        ],
        [
            0.010723402430931592
        ],
        [
            -0.005232329510422987
        ],
        [
            0.0001433083926185035
        ],
        [
            0.007733726014883108
        ],
        [
            -0.009512901855612967
        ],
        [
            -0.003866447486683035
        ],
        [
            0.003477433457239843
        ],
        [
            -0.012662085148523662
        ],
        [
            -0.00638039896654626
        ],
        [
            0.0013905751443131474
        ],
        [
            -0.014980218382606261
        ],
        [
            -0.009149793670281969
        ],
        [
            -0.002984188571432236
        ],
        [
            -0.0197450345214841
        ],
        [
            -0.016935592801053823
        ],
        [
            -0.0010315844632810473
        ],
        [
            -0.014620652055198755
        ],
        [
            -0.012771861033385588
        ],
        [
            0.009109880038250869
        ],
        [
            -0.0031976926153964537
        ],
        [
            -0.0032573391635552515
        ],
        [
            0.012696895837868816
        ],
        [
            -1.9905127945086715e-05
        ],
        [
            0.0003768086114314589
        ],
        [
            0.011136659914858307
        ],
        [
            -0.00532787441048802
        ],
        [
            -0.0047598711084267725
        ],
        [
            0.011243692744180269
        ],
        [
            -0.00725281296797642
        ],
        [
            -0.010180775360254702
        ],
        [
            0.0077847969690089626
        ],
        [
            -0.009527674154089972
        ],
        [
            -0.011134264251673803
        ],
        [
            0.009459108856342208
        ],
        [
            -0.009144227003865885
        ],
        [
            -0.006240086590825155
        ],
        [
            0.011247508389208417
        ],
        [
            -0.005211099800446515
        ],
        [
            0.0005537391498129813
        ],
        [
            0.015727984162506137
        ],
        [
            -0.0012708083866694111
        ],
        [
            0.011307391819334732
        ],
        [
            0.0139242637898979
        ],
        [
            -0.0025738731322213046
        ],
        [
            0.013583083002148805
        ],
        [
            0.012829185776637227
        ],
        [
            -0.002046056885902722
        ],
        [
            0.010148814083699916
        ],
        [
            0.011165303663338361
        ],
        [
            -0.0011827374229312333
        ],
        [
            0.012067006319798434
        ],
        [
            0.009474931310292301
        ],
        [
            -0.013071858805798057
        ],
        [
            -0.002476139401590366
        ],
        [
            -0.0003652174208756182
        ],
        [
            -0.02099146307837469
        ],
        [
            -0.010479220231089435
        ],
        [
            0.00041233173016310537
        ],
        [
            -0.0202575904036636
        ],
        [
            -0.012480384646071953
        ],
        [
            0.007115161819179838
        ],
        [
            -0.0119631828828422
        ],
        [
            -0.001712345992048758
        ],
        [
            0.00856444880044475
        ],
        [
            -0.011218103325043019
        ],
        [
            -0.00039104839833067076
        ],
        [
            0.011385339831911126
        ],
        [
            -0.007722373626758048
        ],
        [
            0.001245404396032003
        ],
        [
            0.013528857476196136
        ],
        [
            -0.0026545104497225935
        ],
        [
            0.005082900854038171
        ],
        [
            0.016865675693422857
        ],
        [
            0.0031449715112630786
        ],
        [
            0.011416957306186954
        ],
        [
            0.022234688937257233
        ],
        [
            0.006994264968438902
        ],
        [
            0.014081360353277185
        ],
        [
            0.013992278478063603
        ],
        [
            -0.001164525914504444
        ],
        [
            0.005202473176211046
        ],
        [
            0.0037969067734446704
        ],
        [
            -0.013397558374864348
        ],
        [
            -0.005100794844066551
        ],
        [
            -0.003284212210242069
        ],
        [
            -0.021654714347338525
        ],
        [
            -0.012062076837701285
        ],
        [
            -0.0047383719575166084
        ],
        [
            -0.021530417126715752
        ],
        [
            -0.013156250572885664
        ],
        [
            0.002114514233743305
        ],
        [
            -0.015056790661409273
        ],
        [
            -0.006935740464679698
        ],
        [
            0.004220049405247259
        ],
        [
            -0.012277683926577689
        ],
        [
            -0.004346628193390323
        ],
        [
            0.0032401895411107583
        ],
        [
            -0.013333689492748381
        ],
        [
            -0.010908365014112607
        ],
        [
            0.0083424248902928
        ],
        [
            -0.007831405138890328
        ],
        [
            -0.006778299245125405
        ],
        [
            0.01515281038829718
        ],
        [
            0.0006468761525322711
        ],
        [
            0.0038715641182714756
        ],
        [
            0.02214680910487176
        ],
        [
            0.004902485633804509
        ],
        [
            0.008000504116338514
        ],
        [
            0.013187844887461176
        ],
        [
            -0.0005785336493325697
        ],
        [
            0.0040754836887180864
        ],
        [
            0.00445548803646696
        ],
        [
            -0.00879267438977041
        ],
        [
            -0.0035053923982725026
        ],
        [
            0.00750139158181129
        ],
        [
            -0.0064666164967216435
        ],
        [
            -0.00010537321182193199
        ],
        [
            0.012544682404119697
        ],
        [
            0.0018924652281536328
        ],
        [
            0.011043352034601647
        ],
        [
            0.01776093427721592
        ],
        [
            0.009777194747437226
        ],
        [
            0.018012652414570632
        ],
        [
            0.019961395634445326
        ],
        [
            0.01285383520719541
        ],
        [
            0.02190390431298106
        ],
        [
            0.013102055134164906
        ],
        [
            0.004512143242400759
        ],
        [
            0.012256843523394957
        ],
        [
            0.011079458560360007
        ],
        [
            0.004715833164984474
        ],
        [
            0.010415693205441195
        ],
        [
            0.0057161451574399376
        ],
        [
            0.0014286524055081519
        ],
        [
            0.0056787700995138265
        ],
        [
            0.0015127993655969913
        ],
        [
            -0.006908058453698458
        ],
        [
            -0.0036701419476168496
        ],
        [
            0.005529973440113236
        ],
        [
            -0.005765801264333695
        ],
        [
            6.478783309850324e-05
        ],
        [
            0.0025418834985194688
        ],
        [
            -0.009443612671815226
        ],
        [
            -0.0030844683383219242
        ],
        [
            0.0033823453299555222
        ],
        [
            -0.006142621256550546
        ],
        [
            -0.00592811286020061
        ],
        [
            -0.0007955968775479182
        ],
        [
            -0.006644354192107157
        ],
        [
            -0.011597479086580719
        ],
        [
            -0.0034719739049340055
        ],
        [
            -0.010039933990612572
        ],
        [
            -0.009523361102568115
        ],
        [
            -0.004683714197411896
        ],
        [
            -0.013085729827640074
        ],
        [
            -0.005537260154518396
        ],
        [
            -0.002563786634813748
        ],
        [
            -0.008145633486209405
        ],
        [
            -0.0024281931389893143
        ],
        [
            -0.0070579254111854
        ],
        [
            -0.008580659759976215
        ],
        [
            -0.0008169211927276214
        ],
        [
            -0.006538958141843283
        ],
        [
            -0.008395898068220546
        ],
        [
            0.0016060424378179033
        ],
        [
            -0.002574016321583841
        ],
        [
            -0.003802734247979065
        ],
        [
            0.004246485102943133
        ],
        [
            -0.0017479891809509863
        ],
        [
            -0.007355727662493411
        ],
        [
            0.0017198345223675196
        ],
        [
            0.003952731600955348
        ],
        [
            -0.0036435615788773714
        ],
        [
            0.005159604403553819
        ],
        [
            0.00419036161916199
        ],
        [
            -0.001239528990129413
        ],
        [
            0.0061383511377023975
        ],
        [
            0.0007067642441980547
        ],
        [
            -0.00801849793861679
        ],
        [
            -0.0022669110983132364
        ],
        [
            -0.0005515103896539374
        ],
        [
            -0.015583240691654959
        ],
        [
            -0.006765133457953328
        ],
        [
            0.003802155242422842
        ],
        [
            -0.012698403808685506
        ],
        [
            -0.0031863207396546833
        ],
        [
            0.007367679203413795
        ],
        [
            -0.005580840076541161
        ],
        [
            0.0033158430670812557
        ],
        [
            0.010483921716082367
        ],
        [
            -0.003312956360601522
        ],
        [
            0.0036322020238143495
        ],
        [
            0.010294357289653933
        ],
        [
            -0.007140347710100079
        ],
        [
            0.0014300084615156035
        ],
        [
            0.0052669688239463325
        ],
        [
            -0.014554939507701727
        ],
        [
            -0.004799817544666036
        ],
        [
            0.001336016188981283
        ],
        [
            -0.017054017068282298
        ],
        [
            -0.00842956215801142
        ],
        [
            0.0016502316777837398
        ],
        [
            -0.016905458892848963
        ],
        [
            -0.009479007161888112
        ],
        [
            0.0020769841266162327
        ],
        [
            -0.01684118976780829
        ],
        [
            -0.00858728131608246
        ],
        [
            -0.002682735651285001
        ],
        [
            -0.016899288132173673
        ],
        [
            -0.008962361173423502
        ],
        [
            0.0022580271377570984
        ],
        [
            -0.00988148414053962
        ],
        [
            -0.006088084871403582
        ],
        [
            0.007808291055035998
        ],
        [
            -0.004529165091560724
        ],
        [
            -0.004406473306273395
        ],
        [
            0.009306761130570301
        ],
        [
            -0.005453378232535589
        ],
        [
            -0.007836322029433991
        ],
        [
            0.00813350146424186
        ],
        [
            -0.008645181279508146
        ],
        [
            -0.012467624587743137
        ],
        [
            0.012897779236201392
        ],
        [
            -0.006177404487349229
        ],
        [
            -0.00599776459119547
        ],
        [
            0.013848513616595627
        ],
        [
            -0.005608385371420944
        ],
        [
            -0.0038825753232623324
        ],
        [
            0.014086709652829267
        ],
        [
            -0.004306753640863484
        ],
        [
            0.0011892537944056302
        ],
        [
            0.016728778191231263
        ],
        [
            5.405158619440143e-05
        ],
        [
            0.011249198369149945
        ],
        [
            0.01825660657502462
        ],
        [
            0.004614917438951164
        ],
        [
            0.017563020645203438
        ],
        [
            0.015825480801466597
        ],
        [
            0.0011246666285438468
        ],
        [
            0.01144797600419545
        ],
        [
            0.012013442275106959
        ],
        [
            -0.0020767319299170436
        ],
        [
            0.010628034761963305
        ],
        [
            0.005362607135615206
        ],
        [
            -0.015581958504629885
        ],
        [
            -0.008221076697752759
        ],
        [
            0.0024688676660308325
        ],
        [
            -0.018970410632547934
        ],
        [
            -0.012274196646957053
        ],
        [
            0.0029377726111444436
        ],
        [
            -0.019456531613053156
        ],
        [
            -0.0102089983499738
        ],
        [
            0.0074541566492381
        ],
        [
            -0.015515756693249255
        ],
        [
            -0.00319630928983226
        ],
        [
            0.007585241983557093
        ],
        [
            -0.01347231530048254
        ],
        [
            -0.003139319676776096
        ],
        [
            0.007714028907887249
        ],
        [
            -0.011839672771118886
        ],
        [
            -0.0015137456870592848
        ],
        [
            0.008024220325179496
        ],
        [
            -0.00836167608737677
        ],
        [
            0.0018320000718995975
        ],
        [
            0.011887179437414111
        ],
        [
            -0.001180927400795266
        ],
        [
            0.008222956505312393
        ],
        [
            0.012371022320968076
        ],
        [
            -0.000709777327354218
        ],
        [
            0.008978945638999269
        ],
        [
            0.0050304609579287386
        ],
        [
            -0.009974781103985227
        ],
        [
            -0.00159098125771568
        ],
        [
            0.0028163719086521308
        ],
        [
            -0.014327700955337374
        ],
        [
            -0.005108615787187398
        ],
        [
            -0.0027262139247755004
        ],
        [
            -0.020488629600484386
        ],
        [
            -0.010143084714603408
        ],
        [
            -0.0026807554224538292
        ],
        [
            -0.02194672262389968
        ],
        [
            -0.012698795326530909
        ],
        [
            3.86594498742974e-05
        ],
        [
            -0.016390715998137018
        ],
        [
            -0.011230799108386884
        ],
        [
            -0.0002413272031118519
        ],
        [
            -0.015003156680875953
        ],
        [
            -0.010218124189563176
        ],
        [
            0.0007105201985849547
        ],
        [
            -0.01529295268287936
        ],
        [
            -0.009176336093392617
        ],
        [
            0.0074241077867413935
        ],
        [
            -0.009882869341492528
        ],
        [
            -0.0050652596635667214
        ],
        [
            0.015982867653362647
        ],
        [
            -0.0007049576186141998
        ],
        [
            0.005774920736450478
        ],
        [
            0.022218534966051643
        ],
        [
            0.004071114909203539
        ],
        [
            0.01002631846609658
        ],
        [
            0.017325000048863507
        ],
        [
            0.0012095306896684952
        ],
        [
            0.003800851273799939
        ],
        [
            0.009462339297941505
        ],
        [
            -0.004535828778853159
        ],
        [
            -0.002417616914362897
        ],
        [
            0.01205665630968542
        ],
        [
            -0.0037911285760131386
        ],
        [
            0.00214613368670789
        ],
        [
            0.015426501895360724
        ],
        [
            0.004709054304172595
        ],
        [
            0.015125953403070455
        ],
        [
            0.019419617762994456
        ],
        [
            0.011686964916468453
        ],
        [
            0.018826223300608166
        ],
        [
            0.018157084063543348
        ],
        [
            0.009626720505938621
        ],
        [
            0.014435632824843166
        ],
        [
            0.01225950666165526
        ],
        [
            0.003684257235072936
        ],
        [
            0.009431058901780299
        ],
        [
            0.011060432520017871
        ],
        [
            0.003865553561417138
        ],
        [
            0.011210687982443327
        ],
        [
            0.0064261836232368304
        ],
        [
            4.148251067025267e-05
        ],
        [
            0.006585788752354154
        ],
        [
            0.007368497969206416
        ],
        [
            -0.0014207094666437402
        ],
        [
            0.002187075686292235
        ],
        [
            0.0017029672284811248
        ],
        [
            -0.007235955099616476
        ],
        [
            -0.004138256510945029
        ],
        [
            -0.0025131568285173852
        ],
        [
            -0.014752890042408854
        ],
        [
            -0.009100396699440521
        ],
        [
            0.0022784511726710818
        ],
        [
            -0.009138759372536213
        ],
        [
            -0.00820330201066232
        ],
        [
            0.003514951033924923
        ],
        [
            -0.0029897201745264948
        ],
        [
            -0.005863198533556875
        ],
        [
            -0.0001369942879739341
        ],
        [
            -0.006497546061354096
        ],
        [
            -0.003225673259317511
        ],
        [
            -0.005079324467655182
        ],
        [
            -0.012589194065261176
        ],
        [
            -0.0050392061660013915
        ],
        [
            -0.0022160919247323527
        ],
        [
            -0.0047617061003556406
        ],
        [
            0.0014115612858448025
        ],
        [
            -0.0019195165686387615
        ],
        [
            -0.0013923478259171304
        ],
        [
            0.006371849852274641
        ],
        [
            -0.004604712490397236
        ],
        [
            -0.004247784637766503
        ],
        [
            0.006239701890032862
        ],
        [
            -0.0005393570562586924
        ],
        [
            -0.0011682012517947613
        ],
        [
            0.008845454933460442
        ],
        [
            -0.0005187910857214008
        ],
        [
            -0.006250550353305006
        ],
        [
            0.004349613683695397
        ],
        [
            -0.0018978510330985433
        ],
        [
            -0.006317268932416338
        ],
        [
            0.004589029410796312
        ],
        [
            -0.001644964414463078
        ],
        [
            -0.006076409040868282
        ],
        [
            0.0020378828041912387
        ],
        [
            -0.003063272874730503
        ],
        [
            -0.011131042994867967
        ],
        [
            -0.004605392214231202
        ],
        [
            -0.0025754346188467422
        ],
        [
            -0.01681057764695293
        ],
        [
            -0.010008301847973052
        ],
        [
            0.0012963567052175977
        ],
        [
            -0.014591455575100182
        ],
        [
            -0.007539483863170074
        ],
        [
            0.006220886409141638
        ],
        [
            -0.007771973069282099
        ],
        [
            -0.0003232492072047935
        ],
        [
            0.006688849077144641
        ],
        [
            -0.007080834779860428
        ],
        [
            -0.002045062588248857
        ],
        [
            0.0026327589464237135
        ],
        [
            -0.014051378616420888
        ],
        [
            -0.0070337469726376575
        ],
        [
            -0.0017915936427075013
        ],
        [
            -0.019579226958049638
        ],
        [
            -0.007758954277216597
        ],
        [
            -0.00016907327181435778
        ],
        [
            -0.016789702921582758
        ],
        [
            -0.004022947660963983
        ],
        [
            0.0012607198973555226
        ],
        [
            -0.015167515605194984
        ],
        [
            -0.002960275258856723
        ],
        [
            0.00036723398509684975
        ],
        [
            -0.012986011175808231
        ],
        [
            0.00042739135434967666
        ],
        [
            -0.0024500032336799574
        ],
        [
            -0.013961681458329414
        ],
        [
            -0.0018944776694922196
        ],
        [
            0.0001426631287889243
        ],
        [
            -0.010107378014913628
        ],
        [
            -0.003316987391881865
        ],
        [
            0.007228366338645476
        ],
        [
            -0.005011160788009324
        ],
        [
            -0.0009975334656594868
        ],
        [
            0.011882299857921242
        ],
        [
            -0.004463879367977115
        ],
        [
            -0.003981747889311391
        ],
        [
            0.009126267536712276
        ],
        [
            -0.008669193667381584
        ],
        [
            -0.009844518358504724
        ],
        [
            0.01438237981441411
        ],
        [
            -0.004898007139498429
        ],
        [
            -0.004504864577352394
        ],
        [
            0.01636044561308784
        ],
        [
            -0.0013370097770825807
        ],
        [
            0.0019074430196171436
        ],
        [
            0.018247164715134004
        ],
        [
            0.0005131320285351519
        ],
        [
            0.00842371085021569
        ],
        [
            0.01505198494810184
        ],
        [
            0.0010507529493192977
        ],
        [
            0.012680206956886424
        ],
        [
            0.015206465065268815
        ],
        [
            0.004577197253099246
        ],
        [
            0.01753886264818073
        ],
        [
            0.012351864040960675
        ],
        [
            0.00011882034505329994
        ],
        [
            0.012399917287970066
        ],
        [
            0.013182932237647401
        ],
        [
            0.0004082317283602952
        ],
        [
            0.01229973353535794
        ],
        [
            0.008416124383838328
        ],
        [
            -0.011113292794063543
        ],
        [
            -0.003644234009211636
        ],
        [
            0.0053259022416371595
        ],
        [
            -0.01422342314865185
        ],
        [
            -0.007361860182833094
        ],
        [
            0.007275515980859208
        ],
        [
            -0.014367803645263633
        ],
        [
            -0.004599638674177568
        ],
        [
            0.007108349820561313
        ],
        [
            -0.012700015897548017
        ],
        [
            -7.983549463892315e-05
        ],
        [
            0.006975106017481982
        ],
        [
            -0.012215365700474
        ],
        [
            0.0023948515854335974
        ],
        [
            0.00723527940745429
        ],
        [
            -0.010413376007154826
        ],
        [
            0.003300179997615776
        ],
        [
            0.011216020355181855
        ],
        [
            -0.004909946978285359
        ],
        [
            0.006062299922657775
        ],
        [
            0.014137450519419148
        ],
        [
            0.0009525551427211792
        ],
        [
            0.00939336604802379
        ],
        [
            0.01164867297406324
        ],
        [
            0.0006784821101706387
        ],
        [
            0.010364209343410556
        ],
        [
            0.0074487024502989
        ],
        [
            -0.0068345326433024
        ],
        [
            0.000998599018775325
        ],
        [
            0.007523343338761358
        ],
        [
            -0.009181648679995583
        ],
        [
            0.00041081571303019693
        ],
        [
            -0.00011038647546637867
        ],
        [
            -0.015776182690703026
        ],
        [
            -0.0060280262375087225
        ],
        [
            0.0017385360673367102
        ],
        [
            -0.015362386709656525
        ],
        [
            -0.00665652051171045
        ],
        [
            0.0007178543579320629
        ],
        [
            -0.015354919569150619
        ],
        [
            -0.009257817000229679
        ],
        [
            0.0018875439718029682
        ],
        [
            -0.014136783728208768
        ],
        [
            -0.007658216050118013
        ],
        [
            0.005267130929459122
        ],
        [
            -0.013346015037215822
        ],
        [
            -0.007015065331838557
        ],
        [
            0.007134737461730131
        ],
        [
            -0.01212511718511528
        ],
        [
            -0.00684176696340769
        ],
        [
            0.012418316330238552
        ],
        [
            -0.006231797352148584
        ],
        [
            -0.00023617268682882235
        ],
        [
            0.016438307470304996
        ],
        [
            -0.0020449886442225093
        ],
        [
            0.0026139828164548798
        ],
        [
            0.01803699889810948
        ],
        [
            -0.0025063930258727137
        ],
        [
            -0.0019414697171451758
        ],
        [
            0.013083284353959218
        ],
        [
            -0.006164473704350315
        ],
        [
            -0.007249104952748635
        ],
        [
            0.012246021158447628
        ],
        [
            -0.006053189853156479
        ],
        [
            -0.00010848741963531511
        ],
        [
            0.012246628309007286
        ],
        [
            0.001196784934493654
        ],
        [
            0.008483073710405733
        ],
        [
            0.013504778496351972
        ],
        [
            0.00726346796447857
        ],
        [
            0.00899040884207599
        ],
        [
            0.014140757797892946
        ],
        [
            0.006760108874077165
        ],
        [
            0.008337200844647901
        ],
        [
            0.010707745211901501
        ],
        [
            0.0036683068279511027
        ],
        [
            0.009355593115806556
        ],
        [
            0.009456407435504407
        ],
        [
            0.0028027680755609804
        ],
        [
            0.011965866120776145
        ],
        [
            0.0056903254142329895
        ],
        [
            -0.001770047286218613
        ],
        [
            0.0061870520254227535
        ],
        [
            0.0036238112263616688
        ],
        [
            -0.004837339692720295
        ],
        [
            -0.0012926770882546788
        ],
        [
            -0.004717819800475884
        ],
        [
            -0.012487254547575388
        ],
        [
            -0.012317339739970463
        ],
        [
            -0.005530970508197647
        ],
        [
            -0.01742111466594553
        ],
        [
            -0.016214857648837188
        ],
        [
            0.0042744023871766675
        ],
        [
            -0.007584405425848876
        ],
        [
            -0.00696313553493659
        ],
        [
            0.010543546026967577
        ],
        [
            0.0007751254988102313
        ],
        [
            0.0014887160821782698
        ],
        [
            0.005233341893886104
        ],
        [
            -0.004875645009840812
        ],
        [
            0.0004371400151241857
        ],
        [
            0.002265505076004128
        ],
        [
            -0.007970828675215475
        ],
        [
            0.0008725286931316405
        ],
        [
            -0.00012728011264453786
        ],
        [
            -0.00226419701135977
        ],
        [
            0.006010350399481436
        ],
        [
            -0.0018345348690783601
        ],
        [
            -0.00015771770859521309
        ],
        [
            0.006205564307118887
        ],
        [
            -0.0014648734233391606
        ],
        [
            -0.00044900301625388264
        ],
        [
            0.006433688360802183
        ],
        [
            0.008143013619593414
        ],
        [
            0.00825157144540195
        ],
        [
            0.015378640680708133
        ],
        [
            0.00385726836712339
        ],
        [
            0.00045544434874457017
        ],
        [
            0.010436617664127188
        ],
        [
            0.0014381453387342948
        ],
        [
            -0.0007283849385256112
        ],
        [
            0.009725393511314148
        ],
        [
            -0.0010387547262536486
        ],
        [
            -0.002573239298088317
        ],
        [
            0.007587437833995841
        ],
        [
            -0.00208659505090591
        ],
        [
            -0.008782849983096834
        ],
        [
            0.0016642215629294817
        ],
        [
            0.0032176691767303364
        ],
        [
            -0.009926698340872531
        ],
        [
            -0.0027307380397933252
        ],
        [
            0.006889943653322065
        ],
        [
            -0.007713432738501558
        ],
        [
            -0.0007537897743644725
        ],
        [
            0.0070407272149337775
        ],
        [
            -0.00766553007961062
        ],
        [
            -0.0015457805268645096
        ],
        [
            0.004217338284618055
        ],
        [
            -0.0098871210157363
        ],
        [
            -0.006838678311732615
        ],
        [
            -0.00821662989562972
        ],
        [
            -0.02272688189880502
        ],
        [
            -0.01688832761862166
        ],
        [
            -0.006381080345607313
        ],
        [
            -0.02248860886189751
        ],
        [
            -0.012193622691254749
        ],
        [
            0.00266932874122182
        ],
        [
            -0.01476661084333402
        ],
        [
            -0.002803618271839916
        ],
        [
            0.0009308207743325281
        ],
        [
            -0.017503740043890124
        ],
        [
            -0.0062469885216898
        ],
        [
            0.004649291022421441
        ],
        [
            -0.008987176042642235
        ],
        [
            0.004000965236823356
        ],
        [
            0.001873138232208564
        ],
        [
            -0.01210418153315178
        ],
        [
            -0.0008347531683852615
        ],
        [
            0.0017762063113713762
        ],
        [
            -0.011383638574940973
        ],
        [
            -0.006775137050501267
        ],
        [
            0.006542820906327852
        ],
        [
            -0.005082454358326849
        ],
        [
            -0.0017465046298299515
        ],
        [
            0.013605520115503764
        ],
        [
            -0.0019093937884126643
        ],
        [
            0.0002673874101400486
        ],
        [
            0.014114849322719959
        ],
        [
            -0.004428409105701611
        ],
        [
            -0.004704492678966382
        ],
        [
            0.01686943351818057
        ],
        [
            -0.003047289360711104
        ],
        [
            -0.003261773495226467
        ],
        [
            0.015108616173108809
        ],
        [
            -0.005474999982619683
        ],
        [
            0.0005791599369662152
        ],
        [
            0.014832257987852699
        ],
        [
            -0.0025526652358155333
        ],
        [
            0.005664592561828005
        ],
        [
            0.010397703920494319
        ],
        [
            -0.001372700193539845
        ],
        [
            0.0069434150874574455
        ],
        [
            0.008577499996302853
        ],
        [
            0.0012150223874381368
        ],
        [
            0.011428165188600205
        ],
        [
            0.008884100895121504
        ],
        [
            -0.0014848497659997913
        ],
        [
            0.008999789352683939
        ],
        [
            0.010116187862369643
        ],
        [
            -0.0012202680206772052
        ],
        [
            0.008090502258823106
        ],
        [
            0.008868363649772846
        ],
        [
            -0.008965267253072444
        ],
        [
            0.0009385182461418231
        ],
        [
            0.00432070984872156
        ],
        [
            -0.012408492751863608
        ],
        [
            -0.004797401225934196
        ],
        [
            0.006546787744891141
        ],
        [
            -0.011800879593464996
        ],
        [
            -0.004436979112873004
        ],
        [
            0.010499590259815134
        ],
        [
            -0.0073932057957521785
        ],
        [
            0.003012917999309944
        ],
        [
            0.016634467234593754
        ],
        [
            -0.002512848188604326
        ],
        [
            0.010409754246601387
        ],
        [
            0.01350882739192395
        ],
        [
            -0.0033390072292905464
        ],
        [
            0.009348455738529292
        ],
        [
            0.010770642854489688
        ],
        [
            -0.005431415761470699
        ],
        [
            0.006058332830521986
        ],
        [
            0.01658683584958382
        ],
        [
            0.000495088089477879
        ],
        [
            0.009121352066567487
        ],
        [
            0.017238619638642934
        ],
        [
            0.0005115520069761703
        ],
        [
            0.008251215369004812
        ],
        [
            0.014448085959427686
        ],
        [
            -0.001955243413171275
        ],
        [
            0.004235418972189258
        ],
        [
            0.012848068391148899
        ],
        [
            -0.0030721069097187667
        ],
        [
            0.0038126235042063843
        ],
        [
            0.005296852623496218
        ],
        [
            -0.009795203336841661
        ],
        [
            0.0008984912400600007
        ],
        [
            0.0062270139330426405
        ],
        [
            -0.010959436136396158
        ],
        [
            0.0006263022936971193
        ],
        [
            0.011972743195280312
        ],
        [
            -0.006534041330146646
        ],
        [
            0.003320918455287637
        ],
        [
            0.020209969562537858
        ],
        [
            0.0006067021924947546
        ],
        [
            0.008526999865699195
        ],
        [
            0.023569067692570472
        ],
        [
            0.002394613252046458
        ],
        [
            0.008970031176304863
        ],
        [
            0.016585023778899043
        ],
        [
            -0.004956187937924702
        ],
        [
            0.0016838542556278492
        ],
        [
            0.01056510210320806
        ],
        [
            -0.00884507805635253
        ],
        [
            -0.0026935295007211946
        ],
        [
            0.015199100617174681
        ],
        [
            -0.0012188980885507958
        ],
        [
            0.002271094919487728
        ],
        [
            0.01856799646079636
        ],
        [
            0.0008901872561679084
        ],
        [
            0.001998386374400729
        ],
        [
            0.017665333529723447
        ],
        [
            -0.0025758351897993722
        ],
        [
            -0.003703278283044241
        ],
        [
            0.010435574238922751
        ],
        [
            -0.007053296763338049
        ],
        [
            -0.0028641357621322218
        ],
        [
            0.0018456245159881113
        ],
        [
            -0.01000756763286245
        ],
        [
            -0.005673844712654711
        ],
        [
            0.0082876190288029
        ],
        [
            0.0013260091308639815
        ],
        [
            0.001419252541667982
        ],
        [
            0.010653911022272857
        ],
        [
            0.005658310291645026
        ],
        [
            0.005391628686966968
        ],
        [
            0.0048397822955137115
        ],
        [
            -0.0011519495793536477
        ],
        [
            0.003945617315801459
        ],
        [
            0.0024753609816382843
        ],
        [
            -0.003780284457729255
        ],
        [
            0.0036812674450454794
        ],
        [
            0.0006813036939078775
        ],
        [
            -0.006718686002631142
        ],
        [
            -0.0019499265532694997
        ],
        [
            -0.00031452884117596315
        ],
        [
            -0.0068584930055211836
        ],
        [
            -0.007380231187999767
        ],
        [
            -0.0024133958172129566
        ],
        [
            -0.009922655334288013
        ],
        [
            -0.012069686249580602
        ],
        [
            -0.0002945259279443009
        ],
        [
            -0.013017658842214513
        ],
        [
            -0.015045776978788637
        ],
        [
            0.009322047456170567
        ],
        [
            -0.0037233504192487068
        ],
        [
            -0.005862106075788668
        ],
        [
            0.01672454939950555
        ],
        [
            0.004173155619968239
        ],
        [
            0.0010018593557973722
        ],
        [
            0.009953027153831683
        ],
        [
            -0.0026324778904119202
        ],
        [
            -0.0013554310523790159
        ],
        [
            0.00532331476055763
        ],
        [
            -0.008255095850259877
        ],
        [
            0.00039992418872887304
        ],
        [
            0.0018649750641837521
        ],
        [
            -0.004500331099033277
        ],
        [
            0.006890254225596894
        ],
        [
            0.00045245999087887906
        ],
        [
            -0.0017943840501374513
        ],
        [
            0.007232101884895495
        ],
        [
            -0.0016169930504097794
        ],
        [
            -0.0030238259883613333
        ],
        [
            0.0044130416575487745
        ],
        [
            0.005801676971766878
        ],
        [
            0.006044254533944255
        ],
        [
            0.010803532489787179
        ],
        [
            0.006914803011237362
        ],
        [
            0.00459269934170478
        ],
        [
            0.012467421031628399
        ],
        [
            0.007908323488719346
        ],
        [
            0.004250619978219719
        ],
        [
            0.014303485189073477
        ],
        [
            0.003339344249201255
        ],
        [
            0.002821777736942056
        ],
        [
            0.01436729705751882
        ],
        [
            0.0008325053530180019
        ],
        [
            -0.004402921932109742
        ],
        [
            0.0063445056487633315
        ],
        [
            0.002826445532887955
        ],
        [
            -0.006683876967712866
        ],
        [
            -0.000483997685108893
        ],
        [
            0.009561507026564926
        ],
        [
            -0.002660685136989832
        ],
        [
            0.0006993979497805291
        ],
        [
            0.00932032413269366
        ],
        [
            -0.003808485281583618
        ],
        [
            -0.0006779648174521158
        ],
        [
            8.318100631906137e-05
        ],
        [
            -0.01118807762770496
        ],
        [
            -0.009700778167340031
        ],
        [
            -0.009769185037187243
        ],
        [
            -0.02201761069616528
        ],
        [
            -0.018880752775532993
        ],
        [
            -0.005995372629696493
        ],
        [
            -0.01837664007817037
        ],
        [
            -0.011335146834796061
        ],
        [
            -0.0020492732954534797
        ],
        [
            -0.017986298227895405
        ],
        [
            -0.009602138072227866
        ],
        [
            -0.0038428321811512086
        ],
        [
            -0.0219603003552422
        ],
        [
            -0.012778554060440627
        ],
        [
            0.002827429400043259
        ],
        [
            -0.011410125038825804
        ],
        [
            -0.0009609862660241366
        ],
        [
            0.003524541897828429
        ],
        [
            -0.011099641836526036
        ],
        [
            -0.0009247944151310556
        ],
        [
            0.0013241260948951591
        ],
        [
            -0.013987796746778485
        ],
        [
            -0.009884359138074927
        ],
        [
            0.006048500159389328
        ],
        [
            -0.009395651189893979
        ],
        [
            -0.008942520693263834
        ],
        [
            0.012251826104629136
        ],
        [
            -0.0035432271338885516
        ],
        [
            -0.003410330213853437
        ],
        [
            0.01611842455517979
        ],
        [
            -0.0025266310347293575
        ],
        [
            -0.0034073980612677954
        ],
        [
            0.016802382688219413
        ],
        [
            -0.001047636289695372
        ],
        [
            -0.0016759375182575328
        ],
        [
            0.011597981805376696
        ],
        [
            -0.007603085472303987
        ],
        [
            -0.0025661602649541936
        ],
        [
            0.009426060618010948
        ],
        [
            -0.006280559239913298
        ],
        [
            -0.000730133908248898
        ],
        [
            0.0014158374446298907
        ],
        [
            -0.009055178639899443
        ],
        [
            -0.002450234645943468
        ],
        [
            0.004937588118782164
        ],
        [
            -0.0023780930503793725
        ],
        [
            0.006302035397121886
        ],
        [
            0.004785232956014099
        ],
        [
            -0.003243191506858166
        ],
        [
            0.0062798732106234085
        ],
        [
            0.0017077572791379702
        ],
        [
            -0.007945176990099306
        ],
        [
            0.001259838605535238
        ],
        [
            0.007637233153359067
        ],
        [
            -0.008169452572140464
        ],
        [
            0.003389187402101791
        ],
        [
            -0.0004814430052905734
        ],
        [
            -0.015613605427823009
        ],
        [
            -0.006250932087568716
        ],
        [
            0.005780734602247852
        ],
        [
            -0.010834156177447932
        ],
        [
            -0.001208494497517674
        ],
        [
            0.010895449123854466
        ],
        [
            -0.006523451164698442
        ],
        [
            0.006963738223821289
        ],
        [
            0.015901731812161573
        ],
        [
            -0.00393074315433765
        ],
        [
            0.008244936801297257
        ],
        [
            0.017691712640793857
        ],
        [
            -0.0016909278392712582
        ],
        [
            0.008191679709176742
        ],
        [
            0.014759847341041884
        ],
        [
            -0.0023405215693218335
        ],
        [
            0.007140876824458323
        ],
        [
            0.013677114339684424
        ],
        [
            -0.003468163385376947
        ],
        [
            0.004657960124529477
        ],
        [
            0.020109636314210293
        ],
        [
            0.0002733730743704708
        ],
        [
            0.004789601973496584
        ],
        [
            0.023250359484030095
        ],
        [
            0.0036255819141326365
        ],
        [
            0.0069928123821424385
        ],
        [
            0.02207405155740808
        ],
        [
            0.004491872865784411
        ],
        [
            0.007605913124543205
        ],
        [
            0.011765848887032786
        ],
        [
            -0.002310289175793997
        ],
        [
            0.006379731313715255
        ],
        [
            0.01409137311832919
        ],
        [
            -0.0027314637640245263
        ],
        [
            0.009119246114663488
        ],
        [
            0.021726773278466217
        ],
        [
            0.0021495319474543243
        ],
        [
            0.013307560669234124
        ],
        [
            0.03316754167379148
        ],
        [
            0.010924750660919863
        ],
        [
            0.02396600484709975
        ],
        [
            0.032063796091705773
        ],
        [
            0.011722813151711356
        ],
        [
            0.019840329269951943
        ],
        [
            0.025983644158776804
        ],
        [
            0.005551023582991417
        ],
        [
            0.009423787215438155
        ],
        [
            0.02074029259139668
        ],
        [
            0.0024847281411298923
        ],
        [
            0.0039000128684035956
        ],
        [
            0.019681992533043636
        ],
        [
            0.005453739626607796
        ],
        [
            0.008374569099590203
        ],
        [
            0.02011536627534302
        ],
        [
            0.006494382681141891
        ],
        [
            0.009514101641138748
        ],
        [
            0.013308119091017293
        ],
        [
            0.00020304053789980871
        ],
        [
            0.0015635096773368607
        ],
        [
            0.009248745631481798
        ],
        [
            -0.002576480944488357
        ],
        [
            0.0004051255836817934
        ],
        [
            0.0031337329055459314
        ],
        [
            -0.006130402666445767
        ],
        [
            -0.0030931058909356183
        ],
        [
            0.006631631188373083
        ],
        [
            0.0023027918506821365
        ],
        [
            0.0020246543528532677
        ],
        [
            0.005480411915199678
        ],
        [
            0.00351659054494149
        ],
        [
            0.0026746303435080227
        ],
        [
            -8.798899489228048e-05
        ],
        [
            -0.004989697426746468
        ],
        [
            0.0007426853551862481
        ],
        [
            -6.956667975726625e-05
        ],
        [
            -0.008385358277570396
        ],
        [
            -0.0036205844481567214
        ],
        [
            0.0022195161800682046
        ],
        [
            -0.007473581478518272
        ],
        [
            -0.007516599503517089
        ],
        [
            0.0013543291454501131
        ],
        [
            -0.006310178714786148
        ],
        [
            -0.012315618971552842
        ],
        [
            0.004636035206851625
        ],
        [
            -0.00252927382439811
        ],
        [
            -0.008688647020729388
        ],
        [
            0.005830921523266423
        ],
        [
            -0.0026752961807830033
        ],
        [
            -0.0069988903917597356
        ],
        [
            0.010348568602019064
        ],
        [
            0.0016502528838521126
        ],
        [
            -0.0014699083881958544
        ],
        [
            0.02091741124351385
        ],
        [
            0.009842104491953113
        ],
        [
            0.006590496651498259
        ],
        [
            0.014788080922744973
        ],
        [
            0.003426165660191877
        ],
        [
            0.008217371733390587
        ],
        [
            0.0007963618565784224
        ],
        [
            -0.01210800382122393
        ],
        [
            -0.0025863764261545644
        ],
        [
            -0.002653988232366718
        ],
        [
            -0.008308467168565502
        ],
        [
            0.00014560145880895286
        ],
        [
            -0.003855812470121647
        ],
        [
            -0.005733087303585157
        ],
        [
            0.0016994723308765107
        ],
        [
            -0.003863339456866628
        ],
        [
            -0.0015726019144139457
        ],
        [
            0.005411297346222917
        ],
        [
            -0.0018927609594424203
        ],
        [
            0.0008156900181068887
        ],
        [
            0.006025617822422047
        ],
        [
            -0.00019734331725647673
        ],
        [
            0.0014212461767754714
        ],
        [
            0.009398973535189665
        ],
        [
            0.0031546484565010092
        ],
        [
            0.0030669043631995495
        ],
        [
            0.011849935820524916
        ],
        [
            -0.000311465904728072
        ],
        [
            0.001320088402634917
        ],
        [
            0.011474860715185586
        ],
        [
            -0.0026525895475947286
        ],
        [
            -0.003499945289395487
        ],
        [
            0.004690604282016752
        ],
        [
            0.001189004610412927
        ],
        [
            -0.0031281045086412034
        ],
        [
            0.0030700374515175836
        ],
        [
            0.009372920795502658
        ],
        [
            0.0020214611145245045
        ],
        [
            0.005267426929579084
        ],
        [
            0.008856039253357602
        ],
        [
            0.001121118828706697
        ],
        [
            0.004872914233440564
        ],
        [
            -0.0013597078052770529
        ],
        [
            -0.007981898783708065
        ],
        [
            -0.0042499617525412585
        ],
        [
            -0.002432726025296522
        ],
        [
            -0.009612788787173454
        ],
        [
            -0.006733586501896594
        ],
        [
            -0.004734785128856198
        ],
        [
            -0.015367555001147707
        ],
        [
            -0.010288799249389476
        ],
        [
            -0.002726405235778855
        ],
        [
            -0.015750750113458875
        ],
        [
            -0.01201627127921423
        ],
        [
            0.00149073794791808
        ],
        [
            -0.014132247803840425
        ],
        [
            -0.011313549811467948
        ],
        [
            0.008383843047670465
        ],
        [
            -0.004724556450842065
        ],
        [
            0.0008144574885867422
        ],
        [
            0.0067789876860279335
        ],
        [
            -0.004097907992955616
        ],
        [
            0.003826618734647824
        ],
        [
            0.0008059556788532853
        ],
        [
            -0.008778856866800475
        ],
        [
            -0.004835752405597144
        ],
        [
            0.002483640329510488
        ],
        [
            -0.010173933033234358
        ],
        [
            -0.009768575180722435
        ],
        [
            0.007264879668394439
        ],
        [
            -0.0064330469395613606
        ],
        [
            -0.006715362957701885
        ],
        [
            0.012985524924767585
        ],
        [
            -0.003773158942963763
        ],
        [
            -0.004511942808678733
        ],
        [
            0.013964103667644117
        ],
        [
            -0.00036067791261422015
        ],
        [
            -0.002101773198604851
        ],
        [
            0.00943203456662794
        ],
        [
            -0.005720374083653404
        ],
        [
            -0.001953736783465671
        ],
        [
            0.006933437048367125
        ],
        [
            -0.008371574026210459
        ],
        [
            0.0012789776634899103
        ],
        [
            0.0026488508642605654
        ],
        [
            -0.01120309592829698
        ],
        [
            0.0012832046818291288
        ],
        [
            0.0017379819871624575
        ],
        [
            -0.008206796369195342
        ],
        [
            0.005415365919830084
        ],
        [
            0.004004010359253661
        ],
        [
            -0.007553080564435865
        ],
        [
            0.004307597671923179
        ],
        [
            0.0019253037348273625
        ],
        [
            -0.009876068397802532
        ],
        [
            0.0018517324375016424
        ],
        [
            0.012721182055787478
        ],
        [
            -0.003260260406535307
        ],
        [
            0.009900562003771436
        ],
        [
            0.0025410437160138283
        ],
        [
            -0.010935530584738073
        ],
        [
            -0.0007730230253087271
        ],
        [
            0.004073164433435816
        ],
        [
            -0.010716878836591488
        ],
        [
            0.0006954053597713778
        ],
        [
            0.004170253441121826
        ],
        [
            -0.011696434973382042
        ],
        [
            0.002785005177151868
        ],
        [
            0.009286168005975919
        ],
        [
            -0.009925980849250492
        ],
        [
            0.002967537900958432
        ],
        [
            0.0138717801503739
        ],
        [
            -0.006434557722076264
        ],
        [
            0.006645258700848175
        ],
        [
            0.010151755794523178
        ],
        [
            -0.006596633533444528
        ],
        [
            0.004904451345482159
        ],
        [
            0.007702160489801731
        ],
        [
            -0.008347822030826705
        ],
        [
            -0.00233685317943176
        ],
        [
            0.013924085354025667
        ],
        [
            -0.0038851851324331523
        ],
        [
            0.0010133617912762986
        ],
        [
            0.019161819211643692
        ],
        [
            -0.0003623923987710148
        ],
        [
            0.0033788902227172724
        ],
        [
            0.023125350371718277
        ],
        [
            0.002337366282837899
        ],
        [
            0.00615122383334432
        ],
        [
            0.017818398470059445
        ],
        [
            0.0010161520206173062
        ],
        [
            0.008323088701794096
        ],
        [
            0.015724522918416067
        ],
        [
            -0.001702498404770662
        ],
        [
            0.007095698726730652
        ],
        [
            0.023574072349282778
        ],
        [
            0.0008364117941401068
        ],
        [
            0.009434093744700556
        ],
        [
            0.03015493397599073
        ],
        [
            0.0063853691071671746
        ],
        [
            0.016731019495178908
        ],
        [
            0.0283676669778689
        ],
        [
            0.010096336796490083
        ],
        [
            0.017556719477515356
        ],
        [
            0.020185263063802982
        ],
        [
            0.002072978272538888
        ],
        [
            0.007745738343102257
        ],
        [
            0.018884672703213357
        ],
        [
            0.0031202295662347735
        ],
        [
            0.0028709999534105115
        ],
        [
            0.01890916490730553
        ],
        [
            0.007322926330329509
        ],
        [
            0.007781281649288459
        ],
        [
            0.0181725030158262
        ],
        [
            0.007688328042640071
        ],
        [
            0.01266429671886172
        ],
        [
            0.011988221913337805
        ],
        [
            0.004094307291148139
        ],
        [
            0.009121483381428633
        ],
        [
            0.008810390937878573
        ],
        [
            0.001445497437859578
        ],
        [
            0.005004786595965562
        ],
        [
            0.003943262940163505
        ],
        [
            -0.0025471124908521183
        ],
        [
            0.0010709147297065813
        ],
        [
            0.006625093377852868
        ],
        [
            0.005309454558245089
        ],
        [
            0.004332567835393329
        ],
        [
            0.00242930954264426
        ],
        [
            0.0033819622219580987
        ],
        [
            0.00010228847462306338
        ],
        [
            0.0014104579048501403
        ],
        [
            9.371367861818408e-05
        ],
        [
            0.0014411147744016427
        ],
        [
            0.0028601572614383834
        ],
        [
            -7.043360090794867e-06
        ],
        [
            -3.1945116242088404e-05
        ],
        [
            0.010813335391446284
        ],
        [
            0.004691046772712671
        ],
        [
            -0.0022574557918700806
        ],
        [
            0.011292730406610668
        ],
        [
            0.003420911077824588
        ],
        [
            -0.008185467902991229
        ],
        [
            0.012944725486187438
        ],
        [
            0.005971235703232301
        ],
        [
            -0.0017691763370125148
        ],
        [
            0.012148704385875867
        ],
        [
            0.006471847096612153
        ],
        [
            0.0010400213201324153
        ],
        [
            0.017441924268925345
        ],
        [
            0.011087319406362303
        ],
        [
            0.003809541407222918
        ],
        [
            0.019938270263627624
        ],
        [
            0.01310876296233052
        ],
        [
            0.009596889160066192
        ],
        [
            0.014670168019517439
        ],
        [
            0.007367167946596578
        ],
        [
            0.013851471049210941
