{
    "b":-0.007129272184978172,
    "w":[
        [
            0.010433260524545709
        ],
        [
            -0.026986662853888975
        ],
        [
            -0.012239332190652734
        ],
        [
            -0.009661703465834118
        ],
        [
            -0.050186553402165886
        ],
        [
            -0.028910578280579597
        ],
        [
            -0.0007758000909913704
        ],
        [
            -0.04001551487127231
        ],
        [
            -0.017573459650797738
        ],
        [
            0.011936061173199076
        ],
        [
            -0.0270213265481589
        ],
        [
            -0.0023245040103401665
        ],
        [
            0.023666094432576622
        ],
        [
            -0.01268230033242944
        ],
        [
            0.007043365698630799
        ],
        [
            0.016752671144622318
        ],
        [
            -0.01877572239850818
        ],
        [
            -0.008191168498652575
        ],
        [
            0.01408556400265239
        ],
        [
            -0.017858492154071585
        ],
        [
            -0.008811715764967799
        ],
        [
            0.02147593965169133
        ],
        [
            -0.009524091708842894
        ],
        [
            -0.0004310454882112797
        ],
        [
            0.022074984967202144
        ],
        [
            -0.012134384636914372
        ],
        [
            -0.0026900690436895223
        ],
        [
            0.011270023941019438
        ],
        [
            -0.024475272122485913
        ],
        [
            -0.006882209756573175
        ],
        [
            0.012613276196601813
        ],
        [
            -0.024848040220050598
        ],
        [
            -0.008949918687316807
        ],
        [
            0.011667797659536879
        ],
        [
            -0.024240438297202488
        ],
        [
            -0.015657958684361466
        ],
        [
            0.0113576797930485
        ],
        [
            -0.02942102530898353
        ],
        [
            -0.02266870461728087
        ],
        [
            0.0017542054844729533
        ],
        [
            -0.03525720728106083
        ],
        [
            -0.027809495789061053
        ],
        [
            -0.0001190564627474085
        ],
        [
            -0.02841804344586048
        ],
        [
            -0.015642967741255686
        ],
        [
            -0.0018586203049345922
        ],
        [
            -0.02447112136228577
        ],
        [
            -0.008008116801225807
        ],
        [
            -0.0028834069979333326
        ],
        [
            -0.030126700634610416
        ],
        [
            -0.00584831093958647
        ],
        [
            -0.008576499311229646
        ],
        [
            -0.03664951760202219
        ],
        [
            -0.017190639839011396
        ],
        [
            -0.01372207710165939
        ],
        [
            -0.03233570203483183
        ],
        [
            -0.024138322950685128
        ],
        [
            -0.010045266054603536
        ],
        [
            -0.024218282536852303
        ],
        [
            -0.019619467480162904
        ],
        [
            -0.001562697033533719
        ],
        [
            -0.019692966125112663
        ],
        [
            -0.011944456147136974
        ],
        [
            0.011201069478271918
        ],
        [
            -0.008108378142614331
        ],
        [
            0.0029685789602208546
        ],
        [
            0.01560463659585944
        ],
        [
            -0.004461382214594556
        ],
        [
            0.003968437982023315
        ],
        [
            0.014734756366324757
        ],
        [
            -0.00902066257800482
        ],
        [
            0.0006026495653175842
        ],
        [
            0.02188174896579715
        ],
        [
            -0.009815142879245531
        ],
        [
            0.008867169829664508
        ],
        [
            -0.006530019591733298
        ],
        [
            -0.033658570240498384
        ],
        [
            -0.008575744217074455
        ],
        [
            -0.014818126179988116
        ],
        [
            -0.03957539038688052
        ],
        [
            -0.011642902760696445
        ],
        [
            -0.014608646991406446
        ],
        [
            -0.039380940561575734
        ],
        [
            -0.015338350362796283
        ],
        [
            -0.005600669302585057
        ],
        [
            -0.033140281373349706
        ],
        [
            -0.007073523472844598
        ],
        [
            -0.00022960949408972947
        ],
        [
            -0.024117329877795593
        ],
        [
            -0.002587350623242259
        ],
        [
            -0.010684431075943874
        ],
        [
            -0.03948311033784296
        ],
        [
            -0.02230877447167618
        ],
        [
            -0.023409470584309446
        ],
        [
            -0.04116181430376671
        ],
        [
            -0.025176453352231586
        ],
        [
            -0.023054876282699158
        ],
        [
            -0.03148830299690185
        ],
        [
            -0.0171109391068586
        ],
        [
            -0.018867352637655918
        ],
        [
            -0.02671461514644092
        ],
        [
            -0.008394510406624799
        ],
        [
            -0.011245005349552717
        ],
        [
            -0.022829564176823337
        ],
        [
            -0.00592850412828111
        ],
        [
            -0.0132887769066694
        ],
        [
            -0.026665852512498953
        ],
        [
            -0.009961927858808124
        ],
        [
            -0.031843921474203604
        ],
        [
            -0.04157663332456125
        ],
        [
            -0.024287146993825403
        ],
        [
            -0.04134306924853505
        ],
        [
            -0.049315769175808814
        ],
        [
            -0.02954528248633222
        ],
        [
            -0.019970607999375653
        ],
        [
            -0.031425450770473484
        ],
        [
            -0.01095343338255571
        ],
        [
            -0.003980641114671424
        ],
        [
            -0.020256749329742377
        ],
        [
            -0.0003649295599714855
        ],
        [
            -0.007033765987165111
        ],
        [
            -0.01806234067167014
        ],
        [
            0.007048118860105421
        ],
        [
            0.012375847644652412
        ],
        [
            -0.002775695069061331
        ],
        [
            0.020680973762932688
        ],
        [
            0.022744146615104308
        ],
        [
            0.0050210666355055165
        ],
        [
            0.030508112233536618
        ],
        [
            0.029126588168961964
        ],
        [
            0.00966042795824785
        ],
        [
            0.03911736327037225
        ],
        [
            0.02724218131317557
        ],
        [
            0.008127299932141856
        ],
        [
            0.03139245995434894
        ],
        [
            0.030212577412438806
        ],
        [
            0.008690313937676728
        ],
        [
            0.02187212968494083
        ],
        [
            0.03308308467437488
        ],
        [
            0.011812715661382145
        ],
        [
            0.019773785790991955
        ],
        [
            0.030560942636284276
        ],
        [
            0.0074977489014764614
        ],
        [
            0.022405868505138406
        ],
        [
            0.021776056986636722
        ],
        [
            -0.004846717052799581
        ],
        [
            0.016313912165468833
        ],
        [
            0.013841634234413711
        ],
        [
            -0.010133164350568848
        ],
        [
            0.00834791340025105
        ],
        [
            0.013424179415833045
        ],
        [
            -0.01046222911268245
        ],
        [
            0.0028311244252756133
        ],
        [
            0.0011957619767914995
        ],
        [
            -0.024567634186958336
        ],
        [
            -0.016356388074857686
        ],
        [
            0.010024607528550637
        ],
        [
            -0.01469900862322243
        ],
        [
            -0.010258618380300275
        ],
        [
            0.019052392685852824
        ],
        [
            -0.009077039716262338
        ],
        [
            -0.0039473258103318015
        ],
        [
            0.03636036154578076
        ],
        [
            0.012207446498793012
        ],
        [
            0.01591589379576718
        ],
        [
            0.03905860384910332
        ],
        [
            0.015270505078372043
        ],
        [
            0.019053769556323027
        ],
        [
            0.021615508562979217
        ],
        [
            -0.0023627169626369046
        ],
        [
            5.498141554985367e-05
        ],
        [
            0.022586569869280627
        ],
        [
            -0.0044711665776332515
        ],
        [
            0.0037856503156581114
        ],
        [
            0.02791242181815712
        ],
        [
            -0.003987391870317441
        ],
        [
            0.00814699839694002
        ],
        [
            0.03357007261123673
        ],
        [
            0.003932426738294075
        ],
        [
            0.019236470949314487
        ],
        [
            0.041637625830928275
        ],
        [
            0.012909133387535179
        ],
        [
            0.033084095969498226
        ],
        [
            0.04371830682055552
        ],
        [
            0.011497583123374077
        ],
        [
            0.03964471370145313
        ],
        [
            0.04074662559393504
        ],
        [
            0.010852252658950847
        ],
        [
            0.03295346571457133
        ],
        [
            0.026225187977725366
        ],
        [
            0.0012800287946383387
        ],
        [
            0.01863051829985642
        ],
        [
            0.006507034103927156
        ],
        [
            -0.028640089253164837
        ],
        [
            -0.009639851828030234
        ],
        [
            0.0014187839372122276
        ],
        [
            -0.03588133250426977
        ],
        [
            -0.013022334679020175
        ],
        [
            0.014575008752905377
        ],
        [
            -0.02033150421811748
        ],
        [
            0.004282850779252684
        ],
        [
            0.021153419648878423
        ],
        [
            -0.011785830372472893
        ],
        [
            0.013323524837312195
        ],
        [
            0.02650385130659896
        ],
        [
            -0.0036812340304286564
        ],
        [
            0.013630716607039831
        ],
        [
            0.017848115528338333
        ],
        [
            -0.011212865249629774
        ],
        [
            0.0022444732397390453
        ],
        [
            0.019290494073762692
        ],
        [
            -0.00949960662336902
        ],
        [
            0.0018837744641509893
        ],
        [
            0.03633239761415919
        ],
        [
            0.008017347007440386
        ],
        [
            0.01632057703751542
        ],
        [
            0.030406612868395726
        ],
        [
            -0.0014026698257380288
        ],
        [
            0.007261842761050482
        ],
        [
            0.010703126516263423
        ],
        [
            -0.026684547409605464
        ],
        [
            -0.0094562307352689
        ],
        [
            0.005160260160830679
        ],
        [
            -0.02957606105225027
        ],
        [
            -0.00887783385715804
        ],
        [
            0.011352502063714735
        ],
        [
            -0.027216538547846662
        ],
        [
            -0.0090049032190197
        ],
        [
            0.013921145291929556
        ],
        [
            -0.024694231708163927
        ],
        [
            -0.016365811911872596
        ],
        [
            0.020004881054336395
        ],
        [
            -0.016962513825894095
        ],
        [
            -0.0018746984200104862
        ],
        [
            0.008949090213250573
        ],
        [
            -0.01891097151358164
        ],
        [
            -0.0016343829110580632
        ],
        [
            0.003243855683958821
        ],
        [
            -0.022495022121127212
        ],
        [
            -0.006650789515244997
        ],
        [
            0.002243478239981324
        ],
        [
            -0.02273795228959474
        ],
        [
            -0.0008772553873130711
        ],
        [
            -0.0032727112664454002
        ],
        [
            -0.030173930562590223
        ],
        [
            -0.014862731761100574
        ],
        [
            -0.008852571462725629
        ],
        [
            -0.029657247377100026
        ],
        [
            -0.01961423500212972
        ],
        [
            -0.0010915206998355746
        ],
        [
            -0.01488232235598144
        ],
        [
            -0.007601110153857922
        ],
        [
            0.0032471987930909403
        ],
        [
            -0.016999013799174383
        ],
        [
            -0.00503436321308373
        ],
        [
            0.007374035292774931
        ],
        [
            -0.014856355813513212
        ],
        [
            0.00027905926907982603
        ],
        [
            0.01899754572833988
        ],
        [
            -0.0024037577585541035
        ],
        [
            0.007413531991872059
        ],
        [
            0.025643201763579707
        ],
        [
            0.001668523308414031
        ],
        [
            0.013438804137592061
        ],
        [
            0.02333891338400003
        ],
        [
            0.0005184184407115821
        ],
        [
            0.021492531778869374
        ],
        [
            0.009198704312084529
        ],
        [
            -0.01397063523115557
        ],
        [
            0.015935527568619143
        ],
        [
            0.0007862449468516473
        ],
        [
            -0.022311334572203412
        ],
        [
            0.009719432835122168
        ],
        [
            -0.000579919737924415
        ],
        [
            -0.025771713949697485
        ],
        [
            -0.0001551891332807675
        ],
        [
            0.002760182098897945
        ],
        [
            -0.024006552241233086
        ],
        [
            -0.0012462593705796496
        ],
        [
            0.0005679685378651438
        ],
        [
            -0.020455734777067514
        ],
        [
            -0.00533922218612409
        ],
        [
            0.003219179626456475
        ],
        [
            -0.019981577107033424
        ],
        [
            -0.011610703643362176
        ],
        [
            -0.004322222599282365
        ],
        [
            -0.01664585460963129
        ],
        [
            -0.008915503450802859
        ],
        [
            -0.0026038253020432187
        ],
        [
            -0.009791942240960081
        ],
        [
            -0.004198259818510135
        ],
        [
            -0.0038847617908458125
        ],
        [
            -0.01597189773247023
        ],
        [
            -0.005125814366430306
        ],
        [
            -0.0022939480204193117
        ],
        [
            -0.01629167535903517
        ],
        [
            -0.00252650103921252
        ],
        [
            -0.00251441222784804
        ],
        [
            -0.012549686768151597
        ],
        [
            0.000640616526042964
        ],
        [
            -0.016383795302877417
        ],
        [
            -0.023000675430052943
        ],
        [
            -0.007655915340145473
        ],
        [
            -0.022988234345551802
        ],
        [
            -0.032772410795521206
        ],
        [
            -0.017310539012980464
        ],
        [
            -0.008495552226823104
        ],
        [
            -0.016241371573882064
        ],
        [
            -0.001816651961749474
        ],
        [
            -0.006035690337958108
        ],
        [
            -0.015549897103649913
        ],
        [
            0.0010227691706063606
        ],
        [
            -0.008293577280586878
        ],
        [
            -0.013196363382003749
        ],
        [
            0.007957831690905694
        ],
        [
            0.005773789837568228
        ],
        [
            -0.0025244072568832297
        ],
        [
            0.017323352381081163
        ],
        [
            0.012921920303895551
        ],
        [
            -0.002467819842604041
        ],
        [
            0.021230290982877074
        ],
        [
            0.020582318447653267
        ],
        [
            0.00045388259235267035
        ],
        [
            0.02957381777009717
        ],
        [
            0.033087763180764826
        ],
        [
            0.008741604461476864
        ],
        [
            0.03185369204408862
        ],
        [
            0.032943602874849036
        ],
        [
            0.009085574041138264
        ],
        [
            0.02219658528166184
        ],
        [
            0.028251639153941827
        ],
        [
            0.012201962739126049
        ],
        [
            0.019736180736963854
        ],
        [
            0.022755816743303455
        ],
        [
            0.0014469909610120993
        ],
        [
            0.013156857987078874
        ],
        [
            0.011094254472816298
        ],
        [
            -0.011831786813629402
        ],
        [
            0.004855574541461488
        ],
        [
            0.006921921877045774
        ],
        [
            -0.012427145588906681
        ],
        [
            0.0028444681482861535
        ],
        [
            0.007417449059389468
        ],
        [
            -0.013149675095568619
        ],
        [
            -0.0015555138684972473
        ],
        [
            -0.00633259218695585
        ],
        [
            -0.030805735460024977
        ],
        [
            -0.023625493837869084
        ],
        [
            0.010256553167534169
        ],
        [
            -0.013017635888488921
        ],
        [
            -0.013321399329325972
        ],
        [
            0.028272366859915594
        ],
        [
            0.006890282110962338
        ],
        [
            0.007607219214960528
        ],
        [
            0.032795242321256586
        ],
        [
            0.010368304043239997
        ],
        [
            0.015494100251557438
        ],
        [
            0.036266654620631215
        ],
        [
            0.009670331556376687
        ],
        [
            0.012256408903179167
        ],
        [
            0.023907774845655157
        ],
        [
            -0.004142477767840499
        ],
        [
            -0.0033455440727420604
        ],
        [
            0.02291882133503321
        ],
        [
            -0.005837845717830359
        ],
        [
            -0.002071178984358976
        ],
        [
            0.037944935531100496
        ],
        [
            0.0008981791314650146
        ],
        [
            0.010985849533799469
        ],
        [
            0.03376020916970831
        ],
        [
            -0.002421661113483396
        ],
        [
            0.013137204496508709
        ],
        [
            0.03129494555329328
        ],
        [
            -0.0014232351332126019
        ],
        [
            0.02029800223119148
        ],
        [
            0.03787792276283713
        ],
        [
            0.005792622301612147
        ],
        [
            0.03385066643752514
        ],
        [
            0.03610588250848377
        ],
        [
            0.007233244727261578
        ],
        [
            0.03343139971099601
        ],
        [
            0.020836898551790092
        ],
        [
            -0.0028626661714496976
        ],
        [
            0.021543456437651043
        ],
        [
            0.008916236689181194
        ],
        [
            -0.0273108081879584
        ],
        [
            -0.012645214746457786
        ],
        [
            0.008645899211490199
        ],
        [
            -0.02129997984253979
        ],
        [
            -0.009858375636100078
        ],
        [
            0.021453503309513396
        ],
        [
            -0.009821654705060011
        ],
        [
            0.00503816449751976
        ],
        [
            0.03199919389018998
        ],
        [
            0.003292394478054261
        ],
        [
            0.02523410600625592
        ],
        [
            0.03742137538741079
        ],
        [
            0.008866905875666043
        ],
        [
            0.027144360707495416
        ],
        [
            0.030078712214528906
        ],
        [
            0.0029539961793473794
        ],
        [
            0.02265639261150991
        ],
        [
            0.026791435020345013
        ],
        [
            0.0035949844373015065
        ],
        [
            0.016946338041843097
        ],
        [
            0.03647396439265514
        ],
        [
            0.014125365854759651
        ],
        [
            0.022813410799185748
        ],
        [
            0.032843880026701334
        ],
        [
            0.0075402522530639065
        ],
        [
            0.016126399652684788
        ],
        [
            0.02481834549449194
        ],
        [
            -0.008166628184321284
        ],
        [
            0.0027723981541685283
        ],
        [
            0.013703470124107
        ],
        [
            -0.01926638739120635
        ],
        [
            -0.008382344713015919
        ],
        [
            0.008281229387614069
        ],
        [
            -0.025796333676806806
        ],
        [
            -0.010723576996384725
        ],
        [
            0.006122341000781286
        ],
        [
            -0.025818580028880624
        ],
        [
            -0.013949798585733074
        ],
        [
            0.020035979850908877
        ],
        [
            -0.01403427448717411
        ],
        [
            0.0025563437872563642
        ],
        [
            0.01375698752713574
        ],
        [
            -0.012749235180763737
        ],
        [
            -0.0008886176958528444
        ],
        [
            0.005321600491157747
        ],
        [
            -0.01934941082325027
        ],
        [
            -0.013678042513699893
        ],
        [
            0.00669996310282291
        ],
        [
            -0.018750109421023224
        ],
        [
            -0.006361849764594102
        ],
        [
            0.007469502133051323
        ],
        [
            -0.016961159436438753
        ],
        [
            -0.007467706763028716
        ],
        [
            0.015740558020637622
        ],
        [
            -0.00845742251838151
        ],
        [
            -0.003715848652735476
        ],
        [
            0.012779734183823208
        ],
        [
            -0.0017405602628819113
        ],
        [
            0.006981497792096901
        ],
        [
            0.006464847967652993
        ],
        [
            -0.016508333570309678
        ],
        [
            -0.003807326706433647
        ],
        [
            0.011186493574884571
        ],
        [
            -0.012835915130807242
        ],
        [
            -0.00198015930515668
        ],
        [
            0.016814476291793525
        ],
        [
            -0.0008890315882614882
        ],
        [
            0.008280663128359794
        ],
        [
            0.026860352710713388
        ],
        [
            0.010067818075791855
        ],
        [
            0.019678104835298523
        ],
        [
            0.03077158286418475
        ],
        [
            0.013671468631710301
        ],
        [
            0.03343485225796624
        ],
        [
            0.014728563515397234
        ],
        [
            -0.00443022828655755
        ],
        [
            0.025635704352544236
        ],
        [
            0.008607582420849146
        ],
        [
            -0.012382913328633212
        ],
        [
            0.018069695245019262
        ],
        [
            0.002095485448337162
        ],
        [
            -0.018014764436943168
        ],
        [
            0.004467109365791504
        ],
        [
            0.007629296557897001
        ],
        [
            -0.016781223021365445
        ],
        [
            0.004142408886390658
        ],
        [
            0.010204386071774249
        ],
        [
            -0.006165629095058925
        ],
        [
            0.004845617935629619
        ],
        [
            0.016508995858323938
        ],
        [
            -0.0021503456247519426
        ],
        [
            0.005718251923469918
        ],
        [
            0.012115134401682827
        ],
        [
            0.000586280542579362
        ],
        [
            0.0029697565646763513
        ],
        [
            0.009488807372602557
        ],
        [
            0.002566808030693799
        ],
        [
            -0.00033640332255841356
        ],
        [
            -0.003215513801331633
        ],
        [
            -0.013750570305278912
        ],
        [
            -0.013079752791177618
        ],
        [
            -0.007406209206727426
        ],
        [
            -0.018892212639340975
        ],
        [
            -0.014558718665669388
        ],
        [
            -0.00019199306380131092
        ],
        [
            -0.009330871034152335
        ],
        [
            0.0023393986873521686
        ],
        [
            -0.006494749266610144
        ],
        [
            -0.013275898842237038
        ],
        [
            -0.00018167208828764775
        ],
        [
            -0.00257402829258447
        ],
        [
            -0.011176963761967139
        ],
        [
            0.0020531914415843817
        ],
        [
            0.002709585406026668
        ],
        [
            -0.0027682223090657017
        ],
        [
            0.010665285977378914
        ],
        [
            -0.009040486264726743
        ],
        [
            -0.013366667600040178
        ],
        [
            0.002764184591590368
        ],
        [
            0.00047028134143711265
        ],
        [
            -0.005050625312268123
        ],
        [
            0.01458533246026315
        ],
        [
            0.01087980202589532
        ],
        [
            0.005398272370235055
        ],
        [
            0.01885089009757986
        ],
        [
            0.0017884586618312306
        ],
        [
            -0.005788889387488383
        ],
        [
            0.010503976345398514
        ],
        [
            0.015893598109837634
        ],
        [
            -0.0028475858636034745
        ],
        [
            0.019065288353057624
        ],
        [
            0.03228833753427887
        ],
        [
            0.006012401933421207
        ],
        [
            0.024566786062996716
        ],
        [
            0.04142324763704827
        ],
        [
            0.014151248660097279
        ],
        [
            0.023994453379576026
        ],
        [
            0.040952618382256264
        ],
        [
            0.019251705740243114
        ],
        [
            0.022282504224932883
        ],
        [
            0.02522653674905436
        ],
        [
            0.0011032125969761674
        ],
        [
            0.0073313464412520695
        ],
        [
            0.0080334438139803
        ],
        [
            -0.015558156281811885
        ],
        [
            -0.0012836369676222526
        ],
        [
            0.006564143634633077
        ],
        [
            -0.014111869202745594
        ],
        [
            -0.0031257968994265117
        ],
        [
            0.005036939832606387
        ],
        [
            -0.014839288627480894
        ],
        [
            -0.006846551378696112
        ],
        [
            0.00296278607990278
        ],
        [
            -0.021204057531671143
        ],
        [
            -0.019264041565047997
        ],
        [
            0.010998918805381348
        ],
        [
            -0.01090601150802632
        ],
        [
            -0.01594187476051049
        ],
        [
            0.03111890255723365
        ],
        [
            0.01323883860666508
        ],
        [
            0.005258449149315507
        ],
        [
            0.03167218388584779
        ],
        [
            0.0077000373833649
        ],
        [
            0.0075609140654584765
        ],
        [
            0.025757928763943613
        ],
        [
            -0.004538695506471777
        ],
        [
            -0.0011650519992451812
        ],
        [
            0.024320304044980163
        ],
        [
            -0.005535906389250099
        ],
        [
            -0.005533462620652877
        ],
        [
            0.025359788681174496
        ],
        [
            -0.005530805901117819
        ],
        [
            -0.0066582499435335
        ],
        [
            0.03023038308386651
        ],
        [
            -0.0037527996909458516
        ],
        [
            0.0025505669536716896
        ],
        [
            0.029103130269387368
        ],
        [
            -0.0007780130383359515
        ],
        [
            0.01449342096222753
        ],
        [
            0.029896223571206065
        ],
        [
            -0.002309259947869914
        ],
        [
            0.026539796577539302
        ],
        [
            0.030799417535812938
        ],
        [
            0.0008452796106548639
        ],
        [
            0.031165243274340997
        ],
        [
            0.02990574715028236
        ],
        [
            0.003966220745054511
        ],
        [
            0.025100927764690837
        ],
        [
            0.024485933880830812
        ],
        [
            0.0016420270425965156
        ],
        [
            0.022373637695977763
        ],
        [
            0.027056814704178225
        ],
        [
            -0.012902744247333283
        ],
        [
            0.001934253960232552
        ],
        [
            0.002950722563352002
        ],
        [
            -0.028021090380704532
        ],
        [
            -0.018443970898764185
        ],
        [
            0.008156494101411673
        ],
        [
            -0.02583828646925346
        ],
        [
            -0.016903476791734394
        ],
        [
            0.021942841117695875
        ],
        [
            -0.007794773581968533
        ],
        [
            0.009286758501740676
        ],
        [
            0.025999999336696913
        ],
        [
            -0.004217087665160436
        ],
        [
            0.012461394850694026
        ],
        [
            0.03048698517718489
        ],
        [
            -0.0002454161494061496
        ],
        [
            0.015257868048148555
        ],
        [
            0.030435515479715063
        ],
        [
            0.007037069471555555
        ],
        [
            0.018446720516657335
        ],
        [
            0.037225295659238995
        ],
        [
            0.01676509552066629
        ],
        [
            0.022109093463350785
        ],
        [
            0.03914235160740829
        ],
        [
            0.01477085712167743
        ],
        [
            0.01922768844466657
        ],
        [
            0.025639528008268766
        ],
        [
            -0.00492240599861603
        ],
        [
            0.005934532270855732
        ],
        [
            0.014430895553619472
        ],
        [
            -0.020780088629933493
        ],
        [
            -0.0077428974062684055
        ],
        [
            -0.0002454554074600694
        ],
        [
            -0.03598643587247162
        ],
        [
            -0.023648413714761077
        ],
        [
            -0.0025202063977380106
        ],
        [
            -0.03172803857420456
        ],
        [
            -0.018057025808168387
        ],
        [
            0.0034348503896651137
        ],
        [
            -0.029792246906199336
        ],
        [
            -0.01127759164055011
        ],
        [
            0.01320124520209594
        ],
        [
            -0.02013298002689587
        ],
        [
            -0.0036180170724235696
        ],
        [
            0.01236528145485147
        ],
        [
            -0.016517770993277787
        ],
        [
            -0.01122417574518741
        ],
        [
            0.009863308286957384
        ],
        [
            -0.018156984839849243
        ],
        [
            -0.013776170058505849
        ],
        [
            0.01460358604354176
        ],
        [
            -0.01031845616612052
        ],
        [
            -0.006230593367068375
        ],
        [
            0.031243253841267294
        ],
        [
            -0.0003390054224890177
        ],
        [
            0.0038880819262990464
        ],
        [
            0.016448417606420098
        ],
        [
            -0.00553798605929947
        ],
        [
            0.003672367878739298
        ],
        [
            -0.00014196131511836824
        ],
        [
            -0.024034728298354
        ],
        [
            -0.010756903915303246
        ],
        [
            0.009780969308661795
        ],
        [
            -0.014697241091778154
        ],
        [
            -0.0018130199066845852
        ],
        [
            0.014469606951650886
        ],
        [
            -0.004165524663406738
        ],
        [
            0.009170788548684503
        ],
        [
            0.02445000784915556
        ],
        [
            0.011180748311475253
        ],
        [
            0.022479270530512616
        ],
        [
            0.03889098507611919
        ],
        [
            0.0272227835005471
        ],
        [
            0.04557633581339986
        ],
        [
            0.017605855296970535
        ],
        [
            0.0036965032695166176
        ],
        [
            0.027630596375620278
        ],
        [
            0.013091697655024192
        ],
        [
            0.0005685161832674667
        ],
        [
            0.019787543867129623
        ],
        [
            0.0037721167098962527
        ],
        [
            -0.006141315598851557
        ],
        [
            0.008442508103371207
        ],
        [
            0.0019277926311036177
        ],
        [
            -0.01433742675095219
        ],
        [
            0.0030903253985831254
        ],
        [
            0.011878000793117002
        ],
        [
            -0.004379267030591093
        ],
        [
            0.00918104353205214
        ],
        [
            0.013435947240623346
        ],
        [
            -0.00425196321450208
        ],
        [
            0.0037061077286727057
        ],
        [
            0.016781667465556316
        ],
        [
            -0.0006863338779189627
        ],
        [
            8.033759450407202e-05
        ],
        [
            0.0067520629720815226
        ],
        [
            -0.004381814031361283
        ],
        [
            -0.012242587143787296
        ],
        [
            -0.008151936461365918
        ],
        [
            -0.020428463904513236
        ],
        [
            -0.018708501748499622
        ],
        [
            -0.018280390867050703
        ],
        [
            -0.030664734770861
        ],
        [
            -0.018530758468955483
        ],
        [
            -0.005903390809291166
        ],
        [
            -0.01553171371796499
        ],
        [
            0.0006806137827366737
        ],
        [
            -0.010754924070285214
        ],
        [
            -0.011418792983423161
        ],
        [
            0.00108218514379735
        ],
        [
            -0.012257846634719153
        ],
        [
            -0.014864251813501326
        ],
        [
            0.0005490163003788571
        ],
        [
            -0.008336965888265676
        ],
        [
            -0.010280401612626434
        ],
        [
            0.004071597945514799
        ],
        [
            -0.0160990264690062
        ],
        [
            -0.021746492253828863
        ],
        [
            -0.004371973559137491
        ],
        [
            0.0016242234724567135
        ],
        [
            -0.008395750409855473
        ],
        [
            0.008559624962753153
        ],
        [
            0.008031266269078708
        ],
        [
            0.0013877587665029531
        ],
        [
            0.010794721431111164
        ],
        [
            0.0020023242858442465
        ],
        [
            -0.00983900003163643
        ],
        [
            0.0027261452025053395
        ],
        [
            0.00241421593762177
        ],
        [
            -0.020504966193926666
        ],
        [
            -0.0018248543997955629
        ],
        [
            0.01297728326795926
        ],
        [
            -0.014181359014422468
        ],
        [
            0.004756999743674487
        ],
        [
            0.01972015531245366
        ],
        [
            -0.0032622537577331754
        ],
        [
            0.011940798510165326
        ],
        [
            0.023283645676878233
        ],
        [
            -0.0012211651385696544
        ],
        [
            0.011338921152777435
        ],
        [
            0.020169594141148234
        ],
        [
            -0.007669004419710308
        ],
        [
            0.0038191538356676584
        ],
        [
            0.012843038735689068
        ],
        [
            -0.017131877035698552
        ],
        [
            -0.006100978144478905
        ],
        [
            0.0033287777995948966
        ],
        [
            -0.023593414058047033
        ],
        [
            -0.012743829464568415
        ],
        [
            -0.002729756720353138
        ],
        [
            -0.02996641803897825
        ],
        [
            -0.020368994293701495
        ],
        [
            -0.011309965263979512
        ],
        [
            -0.039454969485899515
        ],
        [
            -0.03603194009323793
        ],
        [
            -0.006348151603841699
        ],
        [
            -0.028477225948804606
        ],
        [
            -0.02755693118117104
        ],
        [
            0.016659610287121207
        ],
        [
            -0.002899588302309497
        ],
        [
            -0.005904722991691946
        ],
        [
            0.025789832823797508
        ],
        [
            0.00481587965944699
        ],
        [
            0.002889502506286975
        ],
        [
            0.023301020422750826
        ],
        [
            -0.004934730785045354
        ],
        [
            -0.006716876385784316
        ],
        [
            0.021830488004819695
        ],
        [
            -0.009647986706732404
        ],
        [
            -0.018294609961755293
        ],
        [
            0.014798296414458886
        ],
        [
            -0.014629195551827564
        ],
        [
            -0.021303638171875104
        ],
        [
            0.015880585787120354
        ],
        [
            -0.015308073739579108
        ],
        [
            -0.013349848598643072
        ],
        [
            0.017030141405170382
        ],
        [
            -0.008421163826369277
        ],
        [
            -0.0008294877017041815
        ],
        [
            0.02631034330642106
        ],
        [
            -0.000607119703191127
        ],
        [
            0.021069535438741852
        ],
        [
            0.023802699676340175
        ],
        [
            -0.002527318267025679
        ],
        [
            0.02555686532441877
        ],
        [
            0.02117427469541918
        ],
        [
            -0.0027166366098694524
        ],
        [
            0.016832583939180277
        ],
        [
            0.017359235946490238
        ],
        [
            -0.001451878730830792
        ],
        [
            0.01965751123480002
        ],
        [
            0.017972974344752986
        ],
        [
            -0.021484976154404766
        ],
        [
            -0.004121398475571349
        ],
        [
            -0.002439418544767376
        ],
        [
            -0.03788672218400559
        ],
        [
            -0.020375436485776034
        ],
        [
            -9.546977457031889e-05
        ],
        [
            -0.03610067448953724
        ],
        [
            -0.023209341087972138
        ],
        [
            0.013345915407030954
        ],
        [
            -0.0196380300313778
        ],
        [
            -0.001991417180554322
        ],
        [
            0.014993202851907916
        ],
        [
            -0.01908826477123699
        ],
        [
            -0.00046583684132328303
        ],
        [
            0.01921658577592688
        ],
        [
            -0.012517632923454798
        ],
        [
            0.002139451361827841
        ],
        [
            0.02298260152390643
        ],
        [
            -0.0035311164666554334
        ],
        [
            0.008309607383287726
        ],
        [
            0.030370100882544507
        ],
        [
            0.008299939107671442
        ],
        [
            0.02108103091146785
        ],
        [
            0.04066774214233268
        ],
        [
            0.01438150987901117
        ],
        [
            0.02460897913354354
        ],
        [
            0.024141151438284165
        ],
        [
            -0.0018914977853224171
        ],
        [
            0.006606725019213251
        ],
        [
            0.0038108731060213607
        ],
        [
            -0.025961625941966587
        ],
        [
            -0.013175338041013427
        ],
        [
            -0.011712398324298883
        ],
        [
            -0.044193908668259015
        ],
        [
            -0.027909966140085157
        ],
        [
            -0.01486533035973144
        ],
        [
            -0.043885289224009846
        ],
        [
            -0.029871544270413677
        ],
        [
            -0.00035577362687817885
        ],
        [
            -0.02953813349937544
        ],
        [
            -0.01683720928331263
        ],
        [
            0.005519306025006925
        ],
        [
            -0.023243375253417495
        ],
        [
            -0.01066129113335457
        ],
        [
            0.004633246679842915
        ],
        [
            -0.025208206518051925
        ],
        [
            -0.021525967141664635
        ],
        [
            0.01424948434001469
        ],
        [
            -0.014908862111337146
        ],
        [
            -0.013244719762736777
        ],
        [
            0.026980504656163837
        ],
        [
            0.00048527729712917656
        ],
        [
            0.0061232726309301865
        ],
        [
            0.03997800616613297
        ],
        [
            0.007639987960894227
        ],
        [
            0.013027083685380816
        ],
        [
            0.021913694207910346
        ],
        [
            -0.0029495397160405534
        ],
        [
            0.005865600050088029
        ],
        [
            0.00406404107301657
        ],
        [
            -0.01857010643794836
        ],
        [
            -0.008759092662740962
        ],
        [
            0.009599641128002125
        ],
        [
            -0.014599263806840604
        ],
        [
            -0.0024343878345329134
        ],
        [
            0.018952143459134683
        ],
        [
            0.0008719558324625348
        ],
        [
            0.019002057085952945
        ],
        [
            0.030972228082617966
        ],
        [
            0.01809480060090265
        ],
        [
            0.033301487172497146
        ],
        [
            0.03473526584108738
        ],
        [
            0.023645357750208745
        ],
        [
            0.04078068925878654
        ],
        [
            0.02128052642504061
        ],
        [
            0.0076269899417277945
        ],
        [
            0.021843818033682103
        ],
        [
            0.018909215628077323
        ],
        [
            0.009301166226067602
        ],
        [
            0.01882149048369842
        ],
        [
            0.009858415685018997
        ],
        [
            0.004402678904849884
        ],
        [
            0.010741530182436678
        ],
        [
            0.00197562535594274
        ],
        [
            -0.011897480553594691
        ],
        [
            -0.007909049825009293
        ],
        [
            0.010229831758902826
        ],
        [
            -0.008673841571407447
        ],
        [
            -0.00027830681500606283
        ],
        [
            0.006211668625571333
        ],
        [
            -0.013443886152208293
        ],
        [
            -0.004839190080097718
        ],
        [
            0.006968522825376161
        ],
        [
            -0.008688188923940496
        ],
        [
            -0.011934940184838188
        ],
        [
            -0.0018592539038377947
        ],
        [
            -0.010843873340244522
        ],
        [
            -0.023025794056154084
        ],
        [
            -0.005845890384850735
        ],
        [
            -0.016023297044442417
        ],
        [
            -0.016767995275766653
        ],
        [
            -0.008000666029655285
        ],
        [
            -0.021814541693837834
        ],
        [
            -0.008331148553142275
        ],
        [
            -0.005592322505146938
        ],
        [
            -0.013067799708871165
        ],
        [
            -0.0033156764148591818
        ],
        [
            -0.01510882799168774
        ],
        [
            -0.014427274501464615
        ],
        [
            -0.0014373915359248094
        ],
        [
            -0.014412751048326901
        ],
        [
            -0.015060529040859793
        ],
        [
            0.0025464127722844942
        ],
        [
            -0.006263226484290023
        ],
        [
            -0.007190533041465027
        ],
        [
            0.006304403360431569
        ],
        [
            -0.004636975439612462
        ],
        [
            -0.014324897026528133
        ],
        [
            0.0003230018276889383
        ],
        [
            0.006585940400791733
        ],
        [
            -0.0062305472823073966
        ],
        [
            0.007404739983244306
        ],
        [
            0.007032994390929335
        ],
        [
            -0.001137526772032535
        ],
        [
            0.009636732965287846
        ],
        [
            -0.0014235832458949528
        ],
        [
            -0.01545229297517497
        ],
        [
            -0.0071610504316251015
        ],
        [
            -0.004167816611656072
        ],
        [
            -0.030083662106998532
        ],
        [
            -0.014083854878180608
        ],
        [
            0.004444019448764209
        ],
        [
            -0.024068957906039936
        ],
        [
            -0.005760796721888793
        ],
        [
            0.011655382358276404
        ],
        [
            -0.010029929886979993
        ],
        [
            0.007769117655607365
        ],
        [
            0.01858474135293428
        ],
        [
            -0.004697504115147301
        ],
        [
            0.009334401965236784
        ],
        [
            0.01865663413195614
        ],
        [
            -0.011336920376498574
        ],
        [
            0.005502496769241659
        ],
        [
            0.007231770501103642
        ],
        [
            -0.02661928732285216
        ],
        [
            -0.008723107759486048
        ],
        [
            -0.0005020281874563066
        ],
        [
            -0.03145900259704502
        ],
        [
            -0.01755675177563144
        ],
        [
            -0.0018340841648514887
        ],
        [
            -0.033476574084351
        ],
        [
            -0.021965145992287164
        ],
        [
            -0.0006349505490337597
        ],
        [
            -0.03327249516373902
        ],
        [
            -0.020393148110371167
        ],
        [
            -0.009114099921357876
        ],
        [
            -0.03265510507083846
        ],
        [
            -0.021246135096937725
        ],
        [
            0.0029281687076310016
        ],
        [
            -0.016844651776272958
        ],
        [
            -0.012883343508276336
        ],
        [
            0.014386841265923635
        ],
        [
            -0.005936086940408107
        ],
        [
            -0.008593900821287156
        ],
        [
            0.017934001784512512
        ],
        [
            -0.006532988321643341
        ],
        [
            -0.014207020157839886
        ],
        [
            0.013926780075719859
        ],
        [
            -0.01383316294026107
        ],
        [
            -0.024628136612926704
        ],
        [
            0.022792225483463557
        ],
        [
            -0.009339119569629026
        ],
        [
            -0.012673400692450742
        ],
        [
            0.023554268465117045
        ],
        [
            -0.00902013410961089
        ],
        [
            -0.009400340076166209
        ],
        [
            0.022433264427014092
        ],
        [
            -0.007002392960835843
        ],
        [
            0.0001549073816968326
        ],
        [
            0.028285560626125684
        ],
        [
            0.0026777402450690406
        ],
        [
            0.021600983327829594
        ],
        [
            0.032065473119686494
        ],
        [
            0.011977106263098688
        ],
        [
            0.03414141470307686
        ],
        [
            0.02704448353632223
        ],
        [
            0.004121356063810593
        ],
        [
            0.0212586413707969
        ],
        [
            0.018046551524840738
        ],
        [
            -0.0034579064706406633
        ],
        [
            0.01777018779715733
        ],
        [
            0.009073540952039012
        ],
        [
            -0.02762937300503083
        ],
        [
            -0.016102733335023555
        ],
        [
            0.00374064254214227
        ],
        [
            -0.033963800305355216
        ],
        [
            -0.023379730868610966
        ],
        [
            0.0055160675851179805
        ],
        [
            -0.03435955915010886
        ],
        [
            -0.018805767762669953
        ],
        [
            0.013774158840720216
        ],
        [
            -0.02668711759153272
        ],
        [
            -0.005800294565913847
        ],
        [
            0.01184845716017522
        ],
        [
            -0.024209893747932063
        ],
        [
            -0.007039859330768223
        ],
        [
            0.01137000082973946
        ],
        [
            -0.020483800180451706
        ],
        [
            -0.003159274140535523
        ],
        [
            0.012209051167994462
        ],
        [
            -0.01400946094880029
        ],
        [
            0.002808369092301247
        ],
        [
            0.020604852608823068
        ],
        [
            0.00012402765526042917
        ],
        [
            0.015060330496369793
        ],
        [
            0.020560374408699077
        ],
        [
            -0.001001141242392047
        ],
        [
            0.014981990399592726
        ],
        [
            0.0058904785690805225
        ],
        [
            -0.019960811941082523
        ],
        [
            -0.006654279049754006
        ],
        [
            0.001342742557343657
        ],
        [
            -0.02893637148397436
        ],
        [
            -0.014359389213430598
        ],
        [
            -0.009958584731317686
        ],
        [
            -0.04121823919440746
        ],
        [
            -0.024101095118407773
        ],
        [
            -0.010273197351761276
        ],
        [
            -0.04413183468255661
        ],
        [
            -0.029225156448470197
        ],
        [
            -0.004209126592780879
        ],
        [
            -0.03250333889562954
        ],
        [
            -0.025394185174245756
        ],
        [
            -0.003918212031708359
        ],
        [
            -0.02963036144984709
        ],
        [
            -0.022605616624147975
        ],
        [
            -0.0011544910102849327
        ],
        [
            -0.028884075532994772
        ],
        [
            -0.018742036206213612
        ],
        [
            0.010682844616347019
        ],
        [
            -0.019599013898968745
        ],
        [
            -0.011850337571505129
        ],
        [
            0.027595335540336025
        ],
        [
            -0.0023314238396714812
        ],
        [
            0.008374310730220777
        ],
        [
            0.03884268205546456
        ],
        [
            0.006121432285052075
        ],
        [
            0.016072696917773948
        ],
        [
            0.028756771174716693
        ],
        [
            0.0003858359085657262
        ],
        [
            0.0036204776562625443
        ],
        [
            0.014117020795434188
        ],
        [
            -0.010029654571867375
        ],
        [
            -0.006927531790759462
        ],
        [
            0.019060766847660178
        ],
        [
            -0.008789035495908044
        ],
        [
            0.0024922126004793027
        ],
        [
            0.025717099733086356
        ],
        [
            0.007267603020854629
        ],
        [
            0.028279679512380414
        ],
        [
            0.03586043905790583
        ],
        [
            0.023130584893642427
        ],
        [
            0.036906354569136324
        ],
        [
            0.03283443788474608
        ],
        [
            0.018586914658808504
        ],
        [
            0.028908598082626618
        ],
        [
            0.020357664638175756
        ],
        [
            0.00640397223716677
        ],
        [
            0.018465704076736998
        ],
        [
            0.01945633432380314
        ],
        [
            0.007729899634805129
        ],
        [
            0.02174500605977243
        ],
        [
            0.011437863329469807
        ],
        [
            0.0013335431694835897
        ],
        [
            0.012826604941550263
        ],
        [
            0.014847031962113908
        ],
        [
            -0.0005264261841601088
        ],
        [
            0.004263570116726704
        ],
        [
            0.004735306714407025
        ],
        [
            -0.010446422209591778
        ],
        [
            -0.006950876357215096
        ],
        [
            -0.0022417300951679945
        ],
        [
            -0.023100604214875132
        ],
        [
            -0.016027845472945914
        ],
        [
            0.005503047026190535
        ],
        [
            -0.013324396592292509
        ],
        [
            -0.016096942383162175
        ],
        [
            0.007963251793224794
        ],
        [
            -0.0016572230395639985
        ],
        [
            -0.010979490389825852
        ],
        [
            0.0022115313984931344
        ],
        [
            -0.00795928222511038
        ],
        [
            -0.003954031880927248
        ],
        [
            -0.008619226713109083
        ],
        [
            -0.021077602411479743
        ],
        [
            -0.0076683399596903104
        ],
        [
            -0.0033910392635456937
        ],
        [
            -0.005153256961479628
        ],
        [
            0.005442225824005915
        ],
        [
            -0.00423289326198875
        ],
        [
            0.0005637935075484798
        ],
        [
            0.013718919385855692
        ],
        [
            -0.010496619440422968
        ],
        [
            -0.005976559120041488
        ],
        [
            0.011891944643894176
        ],
        [
            -0.0024455625956726016
        ],
        [
            -0.0012258414352218322
        ],
        [
            0.015199095140733605
        ],
        [
            -0.0025649946551314475
        ],
        [
            -0.012249463240357165
        ],
        [
            0.004893363317474478
        ],
        [
            -0.004963683562305142
        ],
        [
            -0.011434165027292532
        ],
        [
            0.005598124165377371
        ],
        [
            -0.0041309693531660805
        ],
        [
            -0.010009035066739808
        ],
        [
            0.002132019803853223
        ],
        [
            -0.007909717020840147
        ],
        [
            -0.020576648168044234
        ],
        [
            -0.010743218649017821
        ],
        [
            -0.006409299230943083
        ],
        [
            -0.030658751347113315
        ],
        [
            -0.01839308072635927
        ],
        [
            0.0003577200482623893
        ],
        [
            -0.026445271001302437
        ],
        [
            -0.012862945534157351
        ],
        [
            0.009844805807934742
        ],
        [
            -0.013514615525761315
        ],
        [
            0.0011405181322988254
        ],
        [
            0.011597361163618671
        ],
        [
            -0.011767783519173196
        ],
        [
            -0.002245407563273783
        ],
        [
            0.004337815200443618
        ],
        [
            -0.024656840348557446
        ],
        [
            -0.011527018806320087
        ],
        [
            -0.006113617857624099
        ],
        [
            -0.03608327257374882
        ],
        [
            -0.014463924729611213
        ],
        [
            -0.0037167989814789982
        ],
        [
            -0.03166934909011007
        ],
        [
            -0.009640583558966275
        ],
        [
            -0.0013029548648099305
        ],
        [
            -0.02911247050761103
        ],
        [
            -0.008896582876409685
        ],
        [
            -0.0015730884155318056
        ],
        [
            -0.023224055038656218
        ],
        [
            -0.0011985544766282873
        ],
        [
            -0.00703319351992755
        ],
        [
            -0.0247781814747285
        ],
        [
            -0.00577599774756778
        ],
        [
            -0.0006886589904814224
        ],
        [
            -0.01689390952727472
        ],
        [
            -0.008071570251456883
        ],
        [
            0.01343900835480975
        ],
        [
            -0.006596579542778597
        ],
        [
            -0.0022614417254121443
        ],
        [
            0.022681143859557953
        ],
        [
            -0.0046605194669114775
        ],
        [
            -0.006385730284562898
        ],
        [
            0.01482573002362855
        ],
        [
            -0.014591679803989217
        ],
        [
            -0.019363959247061073
        ],
        [
            0.0242904390780242
        ],
        [
            -0.007811696144229385
        ],
        [
            -0.010096546328014332
        ],
        [
            0.02955496861668078
        ],
        [
            0.0003646542662238083
        ],
        [
            0.00283594610524838
        ],
        [
            0.03247623740902955
        ],
        [
            0.0035418344798178935
        ],
        [
            0.015102298242007968
        ],
        [
            0.026438560651668302
        ],
        [
            0.0045698385078840435
        ],
        [
            0.024688453177546102
        ],
        [
            0.02726716171752537
        ],
        [
            0.01184113070629316
        ],
        [
            0.0346422844104233
        ],
        [
            0.020821721002354965
        ],
        [
            0.0024347421244255
        ],
        [
            0.02334020798224519
        ],
        [
            0.02105949328689369
        ],
        [
            0.0022386094506015473
        ],
        [
            0.02178152619599516
        ],
        [
            0.016385328415688176
        ],
        [
            -0.018083135203360926
        ],
        [
            -0.006185539775392318
        ],
        [
            0.010397649704431973
        ],
        [
            -0.02420724234958266
        ],
        [
            -0.013299466208388018
        ],
        [
            0.014276456198209542
        ],
        [
            -0.024403377196577546
        ],
        [
            -0.00772854799707585
        ],
        [
            0.012894626902318636
        ],
        [
            -0.0214590088044927
        ],
        [
            9.482610227599926e-05
        ],
        [
            0.010816617908277067
        ],
        [
            -0.021488742763401437
        ],
        [
            0.004132525269513185
        ],
        [
            0.01081356609947382
        ],
        [
            -0.01790480473242078
        ],
        [
            0.0057550759480043834
        ],
        [
            0.01920612188245526
        ],
        [
            -0.007099761348560337
        ],
        [
            0.010750399078718682
        ],
        [
            0.02553813470780323
        ],
        [
            0.0044888383474343515
        ],
        [
            0.017910808066294148
        ],
        [
            0.02048046213060496
        ],
        [
            0.002850996720240126
        ],
        [
            0.01986753983463941
        ],
        [
            0.01226656631139393
        ],
        [
            -0.012867996461691905
        ],
        [
            0.00037700672430546135
        ],
        [
            0.011328300205441493
        ],
        [
            -0.018698572673932535
        ],
        [
            -0.002480453750394151
        ],
        [
            -0.004254503776535628
        ],
        [
            -0.03169528159627384
        ],
        [
            -0.015174077504546035
        ],
        [
            -0.001205595832183387
        ],
        [
            -0.031145146751172408
        ],
        [
            -0.016817217181963672
        ],
        [
            -0.0027273130094297277
        ],
        [
            -0.031024547878747605
        ],
        [
            -0.021752127842074708
        ],
        [
            -0.0010446925930244434
        ],
        [
            -0.02891763063360506
        ],
        [
            -0.018836211270628886
        ],
        [
            0.006316592425062383
        ],
        [
            -0.025547278967630635
        ],
        [
            -0.015018636460185211
        ],
        [
            0.009363444754105107
        ],
        [
            -0.023509674540183545
        ],
        [
            -0.014626744082438144
        ],
        [
            0.02063992880583711
        ],
        [
            -0.012268224048893198
        ],
        [
            -0.0025224929340961423
        ],
        [
            0.02707993493749085
        ],
        [
            -0.005467630973490906
        ],
        [
            0.002221544962009115
        ],
        [
            0.02925965813242661
        ],
        [
            -0.007359969504789455
        ],
        [
            -0.00807439552876019
        ],
        [
            0.02030675379211025
        ],
        [
            -0.013259868332357561
        ],
        [
            -0.016724311238654616
        ],
        [
            0.019911678363695257
        ],
        [
            -0.011818829011757459
        ],
        [
            -0.0009236080604480984
        ],
        [
            0.020145465215848188
        ],
        [
            0.0020772174820224833
        ],
        [
            0.01683082314582028
        ],
        [
            0.022981733619904993
        ],
        [
            0.014242102700945024
        ],
        [
            0.018432294515758833
        ],
        [
            0.02400043319906124
        ],
        [
            0.012393048886491372
        ],
        [
            0.017454765464340986
        ],
        [
            0.0177421891540491
        ],
        [
            0.006657796145906586
        ],
        [
            0.018612385767796325
        ],
        [
            0.016444803330317788
        ],
        [
            0.006093603960097838
        ],
        [
            0.023480138875372692
        ],
        [
            0.009678812246109976
        ],
        [
            -0.0029767922837246677
        ],
        [
            0.011507649386305396
        ],
        [
            0.007296491100693527
        ],
        [
            -0.007914841532480668
        ],
        [
            -0.003444995482019858
        ],
        [
            -0.008082331280342555
        ],
        [
            -0.021580193997121185
        ],
        [
            -0.024575448972338355
        ],
        [
            -0.008359108240717913
        ],
        [
            -0.029588117285168716
        ],
        [
            -0.03213061089081762
        ],
        [
            0.009028260517663889
        ],
        [
            -0.01149705483307483
        ],
        [
            -0.015047846061987348
        ],
        [
            0.02162137154874959
        ],
        [
            0.0050845205350015694
        ],
        [
            0.002065410303665033
        ],
        [
            0.011949594392597957
        ],
        [
            -0.005653048537293542
        ],
        [
            0.001977185374711726
        ],
        [
            0.005865001618039126
        ],
        [
            -0.011673885589155617
        ],
        [
            0.0040730731748681095
        ],
        [
            0.0026471635709423495
        ],
        [
            0.0012474442930452362
        ],
        [
            0.01668779253694126
        ],
        [
            -0.003073285121072378
        ],
        [
            0.0033196436863653393
        ],
        [
            0.01473033543744415
        ],
        [
            -0.003829503023675633
        ],
        [
            0.001174528802741874
        ],
        [
            0.012458860386028392
        ],
        [
            0.015161246100543658
        ],
        [
            0.017543086069141532
        ],
        [
            0.028439180446529554
        ],
        [
            0.006120920001986542
        ],
        [
            0.001066087637711754
        ],
        [
            0.017571712786381883
        ],
        [
            0.00166586146792769
        ],
        [
            -8.990497954846385e-05
        ],
        [
            0.016820888313991717
        ],
        [
            -0.0031295749790933177
        ],
        [
            -0.0033494595670613097
        ],
        [
            0.013182408461861628
        ],
        [
            -0.0056820747442644795
        ],
        [
            -0.015510930491239174
        ],
        [
            0.0020438670006524226
        ],
        [
            0.006182377176811439
        ],
        [
            -0.01599060573873898
        ],
        [
            -0.003568399474721313
        ],
        [
            0.013712732439910814
        ],
        [
            -0.01088844514685747
        ],
        [
            0.0021333962653322853
        ],
        [
            0.013873894053352155
        ],
        [
            -0.010538812143537291
        ],
        [
            0.0005389156140638827
        ],
        [
            0.008049216443627246
        ],
        [
            -0.015719332140956242
        ],
        [
            -0.01070083992020192
        ],
        [
            -0.01692128779863892
        ],
        [
            -0.041416806094069225
        ],
        [
            -0.030852338476610057
        ],
        [
            -0.013029681129545135
        ],
        [
            -0.039993616523022
        ],
        [
            -0.021470277341130422
        ],
        [
            0.003048996475804839
        ],
        [
            -0.026863390523334415
        ],
        [
            -0.005990370183940215
        ],
        [
            -0.00044335299828028623
        ],
        [
            -0.032399219606489185
        ],
        [
            -0.013943810311385805
        ],
        [
            0.008007436698931513
        ],
        [
            -0.014530973201836508
        ],
        [
            0.00733605913406821
        ],
        [
            0.0025945127775342685
        ],
        [
            -0.020482741070946654
        ],
        [
            -0.0021218014495785406
        ],
        [
            0.003281369002369264
        ],
        [
            -0.018835384248471674
        ],
        [
            -0.013568078036249596
        ],
        [
            0.013144183980055974
        ],
        [
            -0.005950559024376914
        ],
        [
            -0.0027466538555502205
        ],
        [
            0.02635442482400799
        ],
        [
            0.000244853817950232
        ],
        [
            0.001933076078690705
        ],
        [
            0.025452627283019957
        ],
        [
            -0.006262945252602482
        ],
        [
            -0.008663677965769688
        ],
        [
            0.03048685377901298
        ],
        [
            -0.0036094874422228527
        ],
        [
            -0.006229009802455711
        ],
        [
            0.027607547052292732
        ],
        [
            -0.007899606817098462
        ],
        [
            0.00044603504203149786
        ],
        [
            0.026564992271085705
        ],
        [
            -0.0022804775555844642
        ],
        [
            0.0097828578707617
        ],
        [
            0.018237836530385652
        ],
        [
            0.00022601242279648472
        ],
        [
            0.013394033275665001
        ],
        [
            0.015854716332519204
        ],
        [
            0.006039308364491908
        ],
        [
            0.02306299912604187
        ],
        [
            0.01588318042829606
        ],
        [
            -4.051199935210224e-05
        ],
        [
            0.017883381847470486
        ],
        [
            0.017766302051185623
        ],
        [
            0.00013012832051980752
        ],
        [
            0.015211513746702165
        ],
        [
            0.016622099862672567
        ],
        [
            -0.01489152591717576
        ],
        [
            0.0027166526940500062
        ],
        [
            0.008079749120763036
        ],
        [
            -0.021260010178094316
        ],
        [
            -0.008258139348955662
        ],
        [
            0.011961201105389768
        ],
        [
            -0.020189858824208273
        ],
        [
            -0.007860759744886358
        ],
        [
            0.01914001378614159
        ],
        [
            -0.011584775126043832
        ],
        [
            0.006236279901757242
        ],
        [
            0.03077426499732422
        ],
        [
            -0.0019881033250545243
        ],
        [
            0.02090107815019568
        ],
        [
            0.023232575940183776
        ],
        [
            -0.005381080145858117
        ],
        [
            0.016700617572972587
        ],
        [
            0.018475798261008036
        ],
        [
            -0.009277736830764324
        ],
        [
            0.009628467672137748
        ],
        [
            0.031354352933873064
        ],
        [
            0.0042871128309448095
        ],
        [
            0.018079512434864765
        ],
        [
            0.0322017501712908
        ],
        [
            0.0036202967427487547
        ],
        [
            0.015610488499775194
        ],
        [
            0.026626782460441763
        ],
        [
            -0.0027736264483970586
        ],
        [
            0.006848478264560209
        ],
        [
            0.022301390859733372
        ],
        [
            -0.006319839423635217
        ],
        [
            0.005118401758467578
        ],
        [
            0.006487461969469147
        ],
        [
            -0.02028305924945116
        ],
        [
            -0.0011129653729827031
        ],
        [
            0.007695835820894517
        ],
        [
            -0.02288272989291157
        ],
        [
            -0.002420732987809691
        ],
        [
            0.0198751928086451
        ],
        [
            -0.01352384760208727
        ],
        [
            0.0028577949846156883
        ],
        [
            0.035168604807572196
        ],
        [
            0.00037410067213228986
        ],
        [
            0.01323186987533669
        ],
        [
            0.04186446550407448
        ],
        [
            0.004996061884142345
        ],
        [
            0.01613234614885635
        ],
        [
            0.028386374306462177
        ],
        [
            -0.008939675587160066
        ],
        [
            0.002556473021543414
        ],
        [
            0.017203307163035156
        ],
        [
            -0.0165441634079494
        ],
        [
            -0.006540533457652976
        ],
        [
            0.025449980885186314
        ],
        [
            -0.0025980365700358082
        ],
        [
            0.002974275436360113
        ],
        [
            0.03186632753855027
        ],
        [
            0.0011784384316595707
        ],
        [
            0.0015761988470483794
        ],
        [
            0.030044278773997072
        ],
        [
            -0.00547277948231902
        ],
        [
            -0.009343099788318076
        ],
        [
            0.01608492708973147
        ],
        [
            -0.01373075167041831
        ],
        [
            -0.006399770785862253
        ],
        [
            -0.0013450924227115016
        ],
        [
            -0.020332352671177365
        ],
        [
            -0.011660874577598564
        ],
        [
            0.01146275595109121
        ],
        [
            0.0012553973546754616
        ],
        [
            0.0022141806343970337
        ],
        [
            0.016989567813272828
        ],
        [
            0.010393694355379108
        ],
        [
            0.011175303802154635
        ],
        [
            0.006832953396001378
        ],
        [
            -0.0023328104825494104
        ],
        [
            0.007581529743290654
        ],
        [
            0.001762395745337156
        ],
        [
            -0.007730316524281347
        ],
        [
            0.005916599196739346
        ],
        [
            -0.000761121987446467
        ],
        [
            -0.01295208801949976
        ],
        [
            -0.005155010704360795
        ],
        [
            -0.0010683768744933347
        ],
        [
            -0.012099735866645624
        ],
        [
            -0.015803926067477027
        ],
        [
            -0.005323053583395793
        ],
        [
            -0.018158710768032427
        ],
        [
            -0.025604825387698118
        ],
        [
            1.9161176958101027e-05
        ],
        [
            -0.022968262243210323
        ],
        [
            -0.03135015201174724
        ],
        [
            0.017354597851487994
        ],
        [
            -0.005931933482201281
        ],
        [
            -0.014812450773627623
        ],
        [
            0.03151016735903183
        ],
        [
            0.009102107741446597
        ],
        [
            -0.0011624157982068769
        ],
        [
            0.0193175384986138
        ],
        [
            -0.0037069571453868014
        ],
        [
            -0.0034832769040021817
        ],
        [
            0.012942178215100946
        ],
        [
            -0.01139456609905775
        ],
        [
            0.0031602586824444694
        ],
        [
            0.007368137121090238
        ],
        [
            -0.0017110332430141908
        ],
        [
            0.018472699524777744
        ],
        [
            0.0031721837454934112
        ],
        [
            0.0016913717027189665
        ],
        [
            0.017711793509853697
        ],
        [
            -0.002960017774679884
        ],
        [
            -0.0036538177971815
        ],
        [
            0.009359767751512637
        ],
        [
            0.010807944546772393
        ],
        [
            0.012988617453898102
        ],
        [
            0.020223242363261847
        ],
        [
            0.013039180800147
        ],
        [
            0.010073878443874971
        ],
        [
            0.024129438622334878
        ],
        [
            0.014590459285008352
        ],
        [
            0.009983821863861885
        ],
        [
            0.027101765822748564
        ],
        [
            0.006256878106765041
        ],
        [
            0.008174930081318523
        ],
        [
            0.026701744419488003
        ],
        [
            0.0014888693395083037
        ],
        [
            -0.0054797055546066025
        ],
        [
            0.011825788613905904
        ],
        [
            0.006524827858523942
        ],
        [
            -0.008397719250051094
        ],
        [
            0.0012150965033495002
        ],
        [
            0.01969418105411424
        ],
        [
            -0.00041139458104962767
        ],
        [
            0.00441368433822339
        ],
        [
            0.019406057225507284
        ],
        [
            -0.001871144589777818
        ],
        [
            0.0021322505081297046
        ],
        [
            0.0007549547893600621
        ],
        [
            -0.017650714996484174
        ],
        [
            -0.016133983964149168
        ],
        [
            -0.019538652761141053
        ],
        [
            -0.03944185929330713
        ],
        [
            -0.034340738852729334
        ],
        [
            -0.011916449380319293
        ],
        [
            -0.03203867465504863
        ],
        [
            -0.019850037312507823
        ],
        [
            -0.0040416447121732904
        ],
        [
            -0.03164805926328619
        ],
        [
            -0.018110628692185122
        ],
        [
            -0.009333534124931256
        ],
        [
            -0.041439589678089465
        ],
        [
            -0.026964129817073752
        ],
        [
            0.004029879678670964
        ],
        [
            -0.020398860681082064
        ],
        [
            -0.0034206917491674885
        ],
        [
            0.005235349307386146
        ],
        [
            -0.019881262117781115
        ],
        [
            -0.00300811502164074
        ],
        [
            0.001537772948125315
        ],
        [
            -0.025438490899818575
        ],
        [
            -0.020798753416457847
        ],
        [
            0.010776414118719144
        ],
        [
            -0.01688213457881313
        ],
        [
            -0.019148256571396845
        ],
        [
            0.022228268700982316
        ],
        [
            -0.00638847272158756
        ],
        [
            -0.00861369476478256
        ],
        [
            0.028892406370924405
        ],
        [
            -0.004669292476519486
        ],
        [
            -0.008638380319403822
        ],
        [
            0.03008439548297447
        ],
        [
            -0.0012761379798271735
        ],
        [
            -0.0046740633550474775
        ],
        [
            0.02002926574024934
        ],
        [
            -0.013545742524556497
        ],
        [
            -0.006744777069723961
        ],
        [
            0.015808727634827175
        ],
        [
            -0.010795510598362404
        ],
        [
            -0.003536537322729607
        ],
        [
            9.288946187243083e-05
        ],
        [
            -0.016379778455341647
        ],
        [
            -0.0063514899245886375
        ],
        [
            0.008234737986397305
        ],
        [
            -0.0018169212360875017
        ],
        [
            0.012062360751418406
        ],
        [
            0.008346536292027553
        ],
        [
            -0.003274870147552523
        ],
        [
            0.012455490666541488
        ],
        [
            0.0007719878446749978
        ],
        [
            -0.014211386264594289
        ],
        [
            0.001003122998875827
        ],
        [
            0.014494068763820101
        ],
        [
            -0.012794914313210129
        ],
        [
            0.009066183601392873
        ],
        [
            -0.0019744660922120312
        ],
        [
            -0.0275896779042858
        ],
        [
            -0.010702374171012663
        ],
        [
            0.00973609754481232
        ],
        [
            -0.018622746636484753
        ],
        [
            -0.0013621660807514866
        ],
        [
            0.019926673464195035
        ],
        [
            -0.010225842221871154
        ],
        [
            0.01417071407666981
        ],
        [
            0.029461357272840494
        ],
        [
            -0.005207466984074026
        ],
        [
            0.01697143553814579
        ],
        [
            0.03187232723665134
        ],
        [
            -0.0023066799909142854
        ],
        [
            0.015164270196414104
        ],
        [
            0.02705554544092855
        ],
        [
            -0.0032190112196816187
        ],
        [
            0.012017579760702325
        ],
        [
            0.025902754748552047
        ],
        [
            -0.0035272521825381194
        ],
        [
            0.008397886500452575
        ],
        [
            0.03767182570862047
        ],
        [
            0.003009839168885243
        ],
        [
            0.007717840779976513
        ],
        [
            0.04292417800397728
        ],
        [
            0.00785392430979871
        ],
        [
            0.011361100814580116
        ],
        [
            0.03993183505807523
        ],
        [
            0.007796185566220986
        ],
        [
            0.011699472179125786
        ],
        [
            0.018868157710259972
        ],
        [
            -0.005989510895903922
        ],
        [
            0.009265528227622707
        ],
        [
            0.02307452331349068
        ],
        [
            -0.006714473027906112
        ],
        [
            0.014183368083513528
        ],
        [
            0.038430341795540036
        ],
        [
            0.003580510179748666
        ],
        [
            0.022476791903450477
        ],
        [
            0.05960262682203988
        ],
        [
            0.021011432778408282
        ],
        [
            0.04328202960905137
        ],
        [
            0.05740354433067229
        ],
        [
            0.022495014340122868
        ],
        [
            0.036669566056855604
        ],
        [
            0.04586578703520149
        ],
        [
            0.01066246520636521
        ],
        [
            0.01764960627203516
        ],
        [
            0.03660230744711975
        ],
        [
            0.005309098725434373
        ],
        [
            0.006980416591027802
        ],
        [
            0.03323117545867474
        ],
        [
            0.0100673236947636
        ],
        [
            0.015367654990571635
        ],
        [
            0.03389140134080677
        ],
        [
            0.012220749698215913
        ],
        [
            0.01777171939890471
        ],
        [
            0.02086870481528887
        ],
        [
            0.00019249071912630985
        ],
        [
            0.001827709858374582
        ],
        [
            0.013674804032982565
        ],
        [
            -0.0050149548203515335
        ],
        [
            0.000416907685518782
        ],
        [
            0.0015305065755829952
        ],
        [
            -0.012488220777241425
        ],
        [
            -0.005592844947222897
        ],
        [
            0.008867940102248423
        ],
        [
            0.003470003689698127
        ],
        [
            0.004228760637378261
        ],
        [
            0.007596842702777682
        ],
        [
            0.006630248693243333
        ],
        [
            0.005605503375483221
        ],
        [
            -0.0035569893958809725
        ],
        [
            -0.010452883940483763
        ],
        [
            0.0002559348848385488
        ],
        [
            -0.0029360838921184723
        ],
        [
            -0.016116683691605783
        ],
        [
            -0.008373941340653572
        ],
        [
            0.002114000784006365
        ],
        [
            -0.01409419642216185
        ],
        [
            -0.015869254569179
        ],
        [
            0.0015230726374450602
        ],
        [
            -0.011185703623421903
        ],
        [
            -0.025202003564229303
        ],
        [
            0.00763434513305866
        ],
        [
            -0.004075250981525353
        ],
        [
            -0.018683470568688257
        ],
        [
            0.00867531130293748
        ],
        [
            -0.00545452403209338
        ],
        [
            -0.016419001828099612
        ],
        [
            0.01774626484485907
        ],
        [
            0.003200714979291071
        ],
        [
            -0.00564024303926815
        ],
        [
            0.03863621295695827
        ],
        [
            0.019451635973946797
        ],
        [
            0.010480064365344214
        ],
        [
            0.027680301055043367
        ],
        [
            0.0077073240244629315
        ],
        [
            0.01436638902015285
        ],
        [
            0.0016759431765378712
        ],
        [
            -0.02121088153561009
        ],
        [
            -0.005336513048888808
        ],
        [
            -0.0029164665593816334
        ],
        [
            -0.010803365197878246
        ],
        [
            0.003938728727812319
        ],
        [
            -0.00547965175484146
        ],
        [
            -0.006970427605151731
        ],
        [
            0.00686728891306964
        ],
        [
            -0.006976886683803356
        ],
        [
            -0.0012338748578150831
        ],
        [
            0.012222215146482562
        ],
        [
            -0.004510420716989806
        ],
        [
            0.002272581342717464
        ],
        [
            0.011836325175872024
        ],
        [
            -0.0006789421250917034
        ],
        [
            0.004094913440238562
        ],
        [
            0.018737558849243482
        ],
        [
            0.005252452414421291
        ],
        [
            0.007478328535053687
        ],
        [
            0.02269599612022803
        ],
        [
            -0.0008029747291158611
        ],
        [
            0.005065336090040459
        ],
        [
            0.02193289927219084
        ],
        [
            -0.005831065061151697
        ],
        [
            -0.0037317245615985308
        ],
        [
            0.008901262994866344
        ],
        [
            0.0020396711416390836
        ],
        [
            -0.001626093069806539
        ],
        [
            0.007813586650287339
        ],
        [
            0.017601023454775933
        ],
        [
            0.00811705021774406
        ],
        [
            0.012031381871439194
        ],
        [
            0.016618901323790118
        ],
        [
            0.005843451211109603
        ],
        [
            0.01095216540642833
        ],
        [
            -0.004263652076818463
        ],
        [
            -0.013105647959048533
        ],
        [
            -0.00654606530362395
        ],
        [
            -0.0071537864599547024
        ],
        [
            -0.016828465131167727
        ],
        [
            -0.011213376865812032
        ],
        [
            -0.011180993860255638
        ],
        [
            -0.027574233374077866
        ],
        [
            -0.018606853259481942
        ],
        [
            -0.0068965265677431685
        ],
        [
            -0.028299224968574316
        ],
        [
            -0.023685998599147655
        ],
        [
            0.000492652125356693
        ],
        [
            -0.02628164572552545
        ],
        [
            -0.023564173246478283
        ],
        [
            0.014543553977990568
        ],
        [
            -0.0077224825109296815
        ],
        [
            0.0005643595210261466
        ],
        [
            0.009835250961272048
        ],
        [
            -0.008777453683569848
        ],
        [
            0.004779272045964373
        ],
        [
            -0.0009813052132048871
        ],
        [
            -0.0181774162818098
        ],
        [
            -0.012799335839071302
        ],
        [
            0.002883212510574935
        ],
        [
            -0.021306954852029217
        ],
        [
            -0.022832268322487675
        ],
        [
            0.012203545036812669
        ],
        [
            -0.014192971867377956
        ],
        [
            -0.016400402136184135
        ],
        [
            0.022496734263678722
        ],
        [
            -0.008203518241137494
        ],
        [
            -0.011253448222223416
        ],
        [
            0.024518572858016112
        ],
        [
            -0.0005070602341303878
        ],
        [
            -0.005574557172796432
        ],
        [
            0.01630026613901606
        ],
        [
            -0.009337923450612066
        ],
        [
            -0.004514083353299398
        ],
        [
            0.010348460651074993
        ],
        [
            -0.014710919525887343
        ],
        [
            0.0008288289308503147
        ],
        [
            0.002352831119236128
        ],
        [
            -0.020265695379568405
        ],
        [
            0.0015887626934356857
        ],
        [
            0.0016091152099705819
        ],
        [
            -0.013168379288378123
        ],
        [
            0.010467681945832231
        ],
        [
            0.006990912097546461
        ],
        [
            -0.011136856621105338
        ],
        [
            0.009195456662337738
        ],
        [
            0.001200031757216743
        ],
        [
            -0.017651654765798323
        ],
        [
            0.0026646780564804204
        ],
        [
            0.024440993121905345
        ],
        [
            -0.002401162598978407
        ],
        [
            0.022676197465912894
        ],
        [
            0.0028842046278154915
        ],
        [
            -0.019596674186794987
        ],
        [
            5.9385118225172593e-05
        ],
        [
            0.005535432766588386
        ],
        [
            -0.01900195399495385
        ],
        [
            0.0031051547448937883
        ],
        [
            0.0054979555949765686
        ],
        [
            -0.02132602107050397
        ],
        [
            0.0057999074587849675
        ],
        [
            0.01525469507111575
        ],
        [
            -0.018076429398270838
        ],
        [
            0.00649292565084207
        ],
        [
            0.023861468042241103
        ],
        [
            -0.01169939303841643
        ],
        [
            0.012769589079056454
        ],
        [
            0.017660014185731765
        ],
        [
            -0.011652284125647248
        ],
        [
            0.007912800194771377
        ],
        [
            0.013402870772883206
        ],
        [
            -0.014282223064824934
        ],
        [
            -0.006321303611022285
        ],
        [
            0.026120366824610514
        ],
        [
            -0.004758811332878735
        ],
        [
            0.0017970151421296575
        ],
        [
            0.035550350116039665
        ],
        [
            0.0008048804814830012
        ],
        [
            0.00553565021763784
        ],
        [
            0.04242887558722545
        ],
        [
            0.004923944298251922
        ],
        [
            0.009644699067724513
        ],
        [
            0.03135037943874047
        ],
        [
            0.0018800774648489367
        ],
        [
            0.013447219814197185
        ],
        [
            0.026788899063388494
        ],
        [
            -0.0036280744204381077
        ],
        [
            0.010970511533438759
        ],
        [
            0.039929674036937646
        ],
        [
            0.0003028114108391708
        ],
        [
            0.014511501331308505
        ],
        [
            0.05210534123524177
        ],
        [
            0.011009200637900595
        ],
        [
            0.02889807419573737
        ],
        [
            0.04935473030139543
        ],
        [
            0.018816251256767065
        ],
        [
            0.03194027941999503
        ],
        [
            0.03324907828731634
        ],
        [
            0.00262360658124987
        ],
        [
            0.01289095250201622
        ],
        [
            0.03136781947974318
        ],
        [
            0.004852063395075891
        ],
        [
            0.004106274697479791
        ],
        [
            0.03130507118108252
        ],
        [
            0.013415538022111331
        ],
        [
            0.014976377366845943
        ],
        [
            0.029901299271991616
        ],
        [
            0.014353255638292487
        ],
        [
            0.024320937491628447
        ],
        [
            0.018691848525203062
        ],
        [
            0.008353313898026002
        ],
        [
            0.01828914895350108
        ],
        [
            0.013490540670205275
        ],
        [
            0.0034079174194677053
        ],
        [
            0.01067869718099069
        ],
        [
            0.004436807120070942
        ],
        [
            -0.0036713471217487137
        ],
        [
            0.003885552576763201
        ],
        [
            0.008757852050395155
        ],
        [
            0.010340046336329276
        ],
        [
            0.009240948707337132
        ],
        [
            0.0008537828228185005
        ],
        [
            0.006086187594985377
        ],
        [
            -0.00010548898786145926
        ],
        [
            -8.06803275038364e-05
        ],
        [
            0.0005477226536956506
        ],
        [
            0.0027819505176770367
        ],
        [
            0.0031077169809319957
        ],
        [
            0.0011681419303573783
        ],
        [
            0.0007512112644281677
        ],
        [
            0.01877932244208616
        ],
        [
            0.009986567200061653
        ],
        [
            -0.0043665167663264
        ],
        [
            0.020698493981238075
        ],
        [
            0.007727738778033291
        ],
        [
            -0.016311584482815344
        ],
        [
            0.022205836886057314
        ],
        [
            0.011571422349681079
        ],
        [
            -0.005587388077356214
        ],
        [
            0.01870501312222612
        ],
        [
            0.010808786872861794
        ],
        [
            -0.0010960122058680578
        ],
        [
            0.02839148608709821
        ],
        [
            0.018809943530911227
        ],
        [
            0.0035205144525607066
        ],
        [
            0.03339355473934562
        ],
        [
            0.023040389814662485
        ],
        [
            0.0153288323902476
        ],
        [
            0.025764595010577377
        ],
        [
            0.014845880925535841
        ],
        [
            0.02537552934447269
        ],
        [
            0.007717507019723024
        ],
        [
            -0.004891111447935604
        ],
        [
            0.013671138742534594
        ],
        [
            -0.009011060590129748
        ],
        [
            -0.01315227915033702
        ],
        [
            0.0024701014384546664
        ],
        [
            -0.008272424667747006
        ],
